Language model created by QuickLM on Sat Apr  7 09:14:59 EDT 2018
Copyright (c) 1996-2010 Carnegie Mellon University and Alexander I. Rudnicky

The model is in standard ARPA format, designed by Doug Paul while he was at MITRE.

The code that was used to produce this language model is available in Open Source.
Please visit http://www.speech.cs.cmu.edu/tools/ for more information

The (fixed) discount mass is 0.5. The backoffs are computed using the ratio method.
This model based on a corpus of 5 sentences and 9 words

\data\
ngram 1=9
ngram 2=12
ngram 3=7

\1-grams:
-0.8325 </s> -0.3010
-0.8325 <s> -0.2319
-1.5315 ASSISTANT -0.2319
-1.5315 BOOT -0.2319
-1.5315 CALCULATE -0.2319
-1.5315 EMPTY -0.2319
-1.5315 HELLO -0.2881
-1.5315 OPEN -0.2881
-1.5315 STELLA -0.2319

\2-grams:
-1.0000 <s> CALCULATE 0.0000
-1.0000 <s> EMPTY 0.0000
-1.0000 <s> HELLO 0.0000
-1.0000 <s> OPEN 0.0000
-1.0000 <s> STELLA 0.0000
-0.3010 ASSISTANT </s> -0.3010
-0.3010 BOOT </s> -0.3010
-0.3010 CALCULATE </s> -0.3010
-0.3010 EMPTY </s> -0.3010
-0.3010 HELLO BOOT 0.0000
-0.3010 OPEN ASSISTANT 0.0000
-0.3010 STELLA </s> -0.3010

\3-grams:
-0.3010 <s> CALCULATE </s>
-0.3010 <s> EMPTY </s>
-0.3010 <s> HELLO BOOT
-0.3010 <s> OPEN ASSISTANT
-0.3010 <s> STELLA </s>
-0.3010 HELLO BOOT </s>
-0.3010 OPEN ASSISTANT </s>

\end\
