Language model created by QuickLM on Thu Apr 19 05:38:37 EDT 2018
Copyright (c) 1996-2010 Carnegie Mellon University and Alexander I. Rudnicky

The model is in standard ARPA format, designed by Doug Paul while he was at MITRE.

The code that was used to produce this language model is available in Open Source.
Please visit http://www.speech.cs.cmu.edu/tools/ for more information

The (fixed) discount mass is 0.5. The backoffs are computed using the ratio method.
This model based on a corpus of 7 sentences and 11 words

\data\
ngram 1=11
ngram 2=16
ngram 3=9

\1-grams:
-0.8177 </s> -0.3010
-0.8177 <s> -0.2293
-1.6628 ASSISTANT -0.2293
-1.6628 BOOT -0.2293
-1.6628 CALC -0.2293
-1.6628 CALCULATOR -0.2293
-1.6628 EMPTY -0.2293
-1.6628 HELLO -0.2915
-1.6628 OPEN -0.2915
-1.6628 QUIT -0.2293
-1.6628 STELLA -0.2293

\2-grams:
-1.1461 <s> CALC 0.0000
-1.1461 <s> CALCULATOR 0.0000
-1.1461 <s> EMPTY 0.0000
-1.1461 <s> HELLO 0.0000
-1.1461 <s> OPEN 0.0000
-1.1461 <s> QUIT 0.0000
-1.1461 <s> STELLA 0.0000
-0.3010 ASSISTANT </s> -0.3010
-0.3010 BOOT </s> -0.3010
-0.3010 CALC </s> -0.3010
-0.3010 CALCULATOR </s> -0.3010
-0.3010 EMPTY </s> -0.3010
-0.3010 HELLO BOOT 0.0000
-0.3010 OPEN ASSISTANT 0.0000
-0.3010 QUIT </s> -0.3010
-0.3010 STELLA </s> -0.3010

\3-grams:
-0.3010 <s> CALC </s>
-0.3010 <s> CALCULATOR </s>
-0.3010 <s> EMPTY </s>
-0.3010 <s> HELLO BOOT
-0.3010 <s> OPEN ASSISTANT
-0.3010 <s> QUIT </s>
-0.3010 <s> STELLA </s>
-0.3010 HELLO BOOT </s>
-0.3010 OPEN ASSISTANT </s>

\end\
