Language model created by QuickLM on Mon Jun 11 06:31:12 EDT 2018
Copyright (c) 1996-2010 Carnegie Mellon University and Alexander I. Rudnicky

The model is in standard ARPA format, designed by Doug Paul while he was at MITRE.

The code that was used to produce this language model is available in Open Source.
Please visit http://www.speech.cs.cmu.edu/tools/ for more information

The (fixed) discount mass is 0.5. The backoffs are computed using the ratio method.
This model based on a corpus of 4 sentences and 9 words

\data\
ngram 1=9
ngram 2=11
ngram 3=7

\1-grams:
-0.8751 </s> -0.3010
-0.8751 <s> -0.2389
-1.4771 ASSISTANT -0.2389
-1.4771 BOOT -0.2863
-1.4771 COMMANDS -0.2389
-1.4771 HELP -0.2389
-1.4771 LIST -0.2863
-1.4771 MIND -0.2389
-1.4771 OPEN -0.2863

\2-grams:
-0.9031 <s> BOOT 0.0000
-0.9031 <s> HELP 0.0000
-0.9031 <s> LIST 0.0000
-0.9031 <s> OPEN 0.0000
-0.3010 ASSISTANT </s> -0.3010
-0.3010 BOOT MIND 0.0000
-0.3010 COMMANDS </s> -0.3010
-0.3010 HELP </s> -0.3010
-0.3010 LIST COMMANDS 0.0000
-0.3010 MIND </s> -0.3010
-0.3010 OPEN ASSISTANT 0.0000

\3-grams:
-0.3010 <s> BOOT MIND
-0.3010 <s> HELP </s>
-0.3010 <s> LIST COMMANDS
-0.3010 <s> OPEN ASSISTANT
-0.3010 BOOT MIND </s>
-0.3010 LIST COMMANDS </s>
-0.3010 OPEN ASSISTANT </s>

\end\
