Language model created by QuickLM on Thu Jun 14 04:23:30 EDT 2018
Copyright (c) 1996-2010 Carnegie Mellon University and Alexander I. Rudnicky

The model is in standard ARPA format, designed by Doug Paul while he was at MITRE.

The code that was used to produce this language model is available in Open Source.
Please visit http://www.speech.cs.cmu.edu/tools/ for more information

The (fixed) discount mass is 0.5. The backoffs are computed using the ratio method.
This model based on a corpus of 7 sentences and 12 words

\data\
ngram 1=12
ngram 2=17
ngram 3=10

\1-grams:
-0.8361 </s> -0.3010
-0.8361 <s> -0.2326
-1.6812 ASSISTANT -0.2326
-1.6812 BOOT -0.2919
-1.6812 CLOSE -0.2326
-1.6812 COMMANDS -0.2326
-1.6812 EXIT -0.2326
-1.6812 HELP -0.2326
-1.6812 LIST -0.2919
-1.6812 MIND -0.2326
-1.6812 OPEN -0.2919
-1.6812 QUIT -0.2326

\2-grams:
-1.1461 <s> BOOT 0.0000
-1.1461 <s> CLOSE 0.0000
-1.1461 <s> EXIT 0.0000
-1.1461 <s> HELP 0.0000
-1.1461 <s> LIST 0.0000
-1.1461 <s> OPEN 0.0000
-1.1461 <s> QUIT 0.0000
-0.3010 ASSISTANT </s> -0.3010
-0.3010 BOOT MIND 0.0000
-0.3010 CLOSE </s> -0.3010
-0.3010 COMMANDS </s> -0.3010
-0.3010 EXIT </s> -0.3010
-0.3010 HELP </s> -0.3010
-0.3010 LIST COMMANDS 0.0000
-0.3010 MIND </s> -0.3010
-0.3010 OPEN ASSISTANT 0.0000
-0.3010 QUIT </s> -0.3010

\3-grams:
-0.3010 <s> BOOT MIND
-0.3010 <s> CLOSE </s>
-0.3010 <s> EXIT </s>
-0.3010 <s> HELP </s>
-0.3010 <s> LIST COMMANDS
-0.3010 <s> OPEN ASSISTANT
-0.3010 <s> QUIT </s>
-0.3010 BOOT MIND </s>
-0.3010 LIST COMMANDS </s>
-0.3010 OPEN ASSISTANT </s>

\end\
