Language model created by QuickLM on Sat Apr  7 09:15:02 EDT 2018
Copyright (c) 1996-2010 Carnegie Mellon University and Alexander I. Rudnicky

The model is in standard ARPA format, designed by Doug Paul while he was at MITRE.

The code that was used to produce this language model is available in Open Source.
Please visit http://www.speech.cs.cmu.edu/tools/ for more information

The (fixed) discount mass is 0.5. The backoffs are computed using the ratio method.
This model based on a corpus of 2 sentences and 4 words

\data\
ngram 1=4
ngram 2=4
ngram 3=3

\1-grams:
-0.8451 </s> -0.3010
-0.8451 <s> -0.2341
-0.8451 HELLO -0.1963
-1.1461 WORLD -0.2341

\2-grams:
-0.3010 <s> HELLO 0.0000
-0.6021 HELLO </s> -0.3010
-0.6021 HELLO WORLD 0.0000
-0.3010 WORLD </s> -0.3010

\3-grams:
-0.6021 <s> HELLO </s>
-0.6021 <s> HELLO WORLD
-0.3010 HELLO WORLD </s>

\end\
