Language model created by QuickLM on Sat Apr  7 09:15:03 EDT 2018
Copyright (c) 1996-2010 Carnegie Mellon University and Alexander I. Rudnicky

The model is in standard ARPA format, designed by Doug Paul while he was at MITRE.

The code that was used to produce this language model is available in Open Source.
Please visit http://www.speech.cs.cmu.edu/tools/ for more information

The (fixed) discount mass is 0.5. The backoffs are computed using the ratio method.
This model based on a corpus of 117 sentences and 136 words

\data\
ngram 1=136
ngram 2=260
ngram 3=240

\1-grams:
-2.6911 * -0.2459
-0.9239 </s> -0.3010
-0.9239 <s> -0.2409
-2.6911 A -0.3001
-2.9921 ABOUT -0.3006
-2.9921 ACCESS -0.3006
-2.9921 ADDRESS -0.2459
-2.9921 ALL -0.2459
-2.9921 ARCH -0.3006
-2.5150 ASSISTANT -0.2454
-2.9921 BACK -0.3006
-2.9921 BAY -0.3006
-2.6911 BE -0.3001
-2.9921 BEGINNING -0.3001
-2.9921 BLOCK -0.3001
-2.9921 CHECK -0.3006
-2.9921 CLEAR -0.2459
-2.0379 CLOSE -0.2332
-2.5150 COMMANDS -0.2434
-2.9921 COMPUTER -0.2459
-2.9921 COPY -0.2459
-2.9921 CUT -0.2459
-2.5150 DAY -0.2970
-2.9921 DAY? -0.2459
-2.6911 DEVICES -0.2459
-2.9921 DIAGNOSTICS -0.2459
-2.6911 DIRECTORY -0.2459
-2.9921 DOCUMENT -0.2459
-2.9921 DOORS -0.2459
-2.3901 DOWN -0.2459
-2.9921 EDITOR -0.2459
-2.9921 EM -0.2459
-2.9921 EMAIL -0.2459
-2.6911 END -0.2449
-2.9921 ENTER -0.2459
-2.9921 ESCAPE -0.2459
-2.9921 EVERYONE -0.2459
-2.9921 FACEBOOK -0.2459
-2.2931 FILE -0.2459
-2.9921 FIND -0.2459
-2.6911 FIREFOX -0.2459
-2.9921 FLIP -0.2459
-2.9921 FOR -0.2993
-2.9921 FORUM -0.2459
-2.9921 FULLSCREEN -0.2459
-2.9921 GO -0.2993
-2.9921 HELLO -0.2993
-2.9921 HOME -0.2459
-2.9921 HOSTNAME -0.2459
-2.9921 INFO -0.2459
-2.9921 INVITE -0.3006
-2.1470 IS -0.2966
-2.6911 IS? -0.2459
-2.9921 IT -0.3001
-2.5150 IT? -0.2459
-2.2140 LIST -0.2434
-2.9921 M -0.2459
-2.9921 MACHINE -0.2459
-2.9921 MATRIX -0.2459
-2.9921 MAXIMIZE -0.2997
-2.3901 ME -0.2444
-2.6911 MIND -0.2449
-2.9921 MINIMIZE -0.2997
-2.9921 MODULES -0.2459
-2.9921 MUTE -0.2459
-2.9921 NETWORK -0.3001
-2.6911 NEW -0.2966
-2.9921 NEXT -0.2988
-2.9921 NOTE -0.2459
-2.6911 OF -0.2988
-2.9921 OK -0.3006
-2.9921 ON -0.3006
-1.7880 OPEN -0.2830
-2.9921 OTHER -0.3006
-2.6911 PAGE -0.2979
-2.9921 PASTE -0.2459
-2.9921 PILL -0.2459
-2.9921 PLAY -0.2459
-2.9921 POD -0.3006
-2.9921 POINTS -0.2459
-2.9921 PREVIOUS -0.2988
-2.6911 PRINT -0.2997
-2.9921 PROCESSES -0.2459
-2.9921 PROGRAM -0.2459
-2.6911 PROJECT -0.3001
-2.9921 QUIET -0.2459
-2.2931 QUIT -0.2930
-2.9921 REBOOT -0.2997
-2.9921 RECORD -0.2459
-2.9921 RED -0.3006
-2.9921 REWIND -0.2459
-2.3901 ROOT -0.2449
-2.9921 RUN -0.3006
-2.6911 SAVE -0.2984
-2.6911 SCROLL -0.2979
-2.9921 SEARCH -0.2988
-2.9921 SELECT -0.3006
-2.6911 SHOW -0.2984
-2.9921 SILENCE -0.2459
-2.9921 SILENT -0.2459
-2.5150 SING -0.2979
-2.6911 SONG -0.2459
-2.2931 STATUS -0.2459
-2.9921 STELLA -0.2459
-2.9921 SUSPEND -0.3006
-2.6911 SWITCH -0.2993
-2.6911 SYSTEM -0.2984
-2.2931 TAB -0.2459
-2.9921 TABS -0.2459
-2.9921 TALK -0.2993
-2.9921 TELL -0.2993
-2.3901 TERMINAL -0.2459
-2.9921 THANKS -0.2993
-2.2140 THE -0.2966
-2.9921 THUNDERBIRD -0.2459
-2.5150 TIME -0.2970
-2.6911 TIME? -0.2459
-2.3901 TO -0.2957
-2.6911 TODAY? -0.2459
-2.9921 TURN -0.3006
-2.9921 UNDO -0.2459
-2.5150 UP -0.2459
-2.9921 USEFUL -0.2997
-2.9921 USERNAME -0.2459
-2.9921 VOICE -0.3006
-2.5150 VOLUME -0.2975
-2.9921 WEATHER -0.3001
-2.9921 WEATHER? -0.2459
-2.2931 WEB -0.2459
-1.9921 WHAT -0.2939
-2.9921 WIKI -0.2459
-2.5150 WINDOW -0.2459
-2.9921 WIRELESS -0.2459
-2.9921 WORKING -0.3001
-2.9921 YOU -0.2459
-2.9921 YOUTUBE -0.2459

\2-grams:
-0.3010 * </s> -0.3010
-2.3692 <s> ADDRESS 0.0000
-2.3692 <s> BACK 0.0000
-2.0682 <s> BE 0.0000
-2.3692 <s> BEGINNING 0.0000
-2.3692 <s> CHECK 0.0000
-2.3692 <s> CLEAR 0.0000
-1.4150 <s> CLOSE 0.0000
-2.3692 <s> COPY 0.0000
-2.3692 <s> CUT 0.0000
-2.3692 <s> DOWN 0.0000
-2.0682 <s> END 0.0000
-2.3692 <s> ENTER 0.0000
-2.3692 <s> ESCAPE 0.0000
-2.3692 <s> FIND 0.0000
-2.3692 <s> FULLSCREEN 0.0000
-2.3692 <s> GO 0.0000
-2.3692 <s> HELLO 0.0000
-2.3692 <s> HOME 0.0000
-2.3692 <s> HOSTNAME 0.0000
-2.3692 <s> INVITE 0.0000
-1.5911 <s> LIST 0.0000
-2.3692 <s> MATRIX 0.0000
-2.3692 <s> MAXIMIZE 0.0000
-2.3692 <s> MINIMIZE 0.0000
-2.0682 <s> NEW 0.0000
-2.3692 <s> NEXT 0.0000
-2.3692 <s> OK 0.0000
-1.1651 <s> OPEN 0.0000
-2.0682 <s> PAGE 0.0000
-2.3692 <s> PASTE 0.0000
-2.3692 <s> PLAY 0.0000
-2.3692 <s> PREVIOUS 0.0000
-2.0682 <s> PRINT 0.0000
-1.6702 <s> QUIT 0.0000
-2.3692 <s> REBOOT 0.0000
-2.3692 <s> RECORD 0.0000
-2.3692 <s> RED 0.0000
-2.3692 <s> REWIND 0.0000
-2.0682 <s> ROOT 0.0000
-2.3692 <s> RUN 0.0000
-2.0682 <s> SAVE 0.0000
-2.0682 <s> SCROLL 0.0000
-2.3692 <s> SEARCH 0.0000
-2.3692 <s> SELECT 0.0000
-2.0682 <s> SHOW 0.0000
-2.3692 <s> SILENCE 0.0000
-1.8921 <s> SING 0.0000
-2.3692 <s> SUSPEND 0.0000
-2.0682 <s> SWITCH 0.0000
-2.0682 <s> SYSTEM 0.0000
-2.3692 <s> TALK 0.0000
-2.3692 <s> TELL 0.0000
-2.3692 <s> TERMINAL 0.0000
-2.3692 <s> THANKS 0.0000
-2.3692 <s> TIME -0.1249
-2.3692 <s> TURN 0.0000
-2.3692 <s> UNDO 0.0000
-2.3692 <s> USERNAME 0.0000
-2.3692 <s> VOICE 0.0000
-1.8921 <s> VOLUME 0.0000
-1.3692 <s> WHAT 0.0000
-0.3010 A SONG 0.0000
-0.3010 ABOUT YOU 0.0000
-0.3010 ACCESS POINTS 0.0000
-0.3010 ADDRESS </s> -0.3010
-0.3010 ALL </s> -0.3010
-0.3010 ARCH WIKI 0.0000
-0.4771 ASSISTANT </s> -0.3010
-0.7782 ASSISTANT FORUM 0.0000
-0.3010 BACK FLIP 0.0000
-0.3010 BAY DOORS 0.0000
-0.6021 BE QUIET 0.0000
-0.6021 BE SILENT 0.0000
-0.3010 BEGINNING OF 0.0000
-0.3010 BLOCK DEVICES 0.0000
-0.3010 CHECK EMAIL 0.0000
-0.3010 CLEAR </s> -0.3010
-1.2553 CLOSE * 0.0000
-1.2553 CLOSE </s> -0.3010
-1.2553 CLOSE ASSISTANT -0.1249
-1.2553 CLOSE OTHER 0.0000
-1.2553 CLOSE PROJECT -0.1761
-1.2553 CLOSE STATUS 0.0000
-1.2553 CLOSE TAB 0.0000
-1.2553 CLOSE TERMINAL 0.0000
-1.2553 CLOSE WINDOW 0.0000
-0.4771 COMMANDS </s> -0.3010
-0.7782 COMMANDS FILE 0.0000
-0.3010 COMPUTER </s> -0.3010
-0.3010 COPY </s> -0.3010
-0.3010 CUT </s> -0.3010
-0.4771 DAY IS -0.1549
-0.7782 DAY IS? 0.0000
-0.3010 DAY? </s> -0.3010
-0.3010 DEVICES </s> -0.3010
-0.3010 DIAGNOSTICS </s> -0.3010
-0.3010 DIRECTORY </s> -0.3010
-0.3010 DOCUMENT </s> -0.3010
-0.3010 DOORS </s> -0.3010
-0.3010 DOWN </s> -0.3010
-0.3010 EDITOR </s> -0.3010
-0.3010 EM </s> -0.3010
-0.3010 EMAIL </s> -0.3010
-0.6021 END </s> -0.3010
-0.6021 END OF 0.0000
-0.3010 ENTER </s> -0.3010
-0.3010 ESCAPE </s> -0.3010
-0.3010 EVERYONE </s> -0.3010
-0.3010 FACEBOOK </s> -0.3010
-0.3010 FILE </s> -0.3010
-0.3010 FIND </s> -0.3010
-0.3010 FIREFOX </s> -0.3010
-0.3010 FLIP </s> -0.3010
-0.3010 FOR ME -0.1761
-0.3010 FORUM </s> -0.3010
-0.3010 FULLSCREEN </s> -0.3010
-0.3010 GO TO -0.2430
-0.3010 HELLO ROOT -0.0969
-0.3010 HOME </s> -0.3010
-0.3010 HOSTNAME </s> -0.3010
-0.3010 INFO </s> -0.3010
-0.3010 INVITE EVERYONE 0.0000
-1.1461 IS IT 0.0000
-0.6690 IS IT? 0.0000
-0.6690 IS THE -0.1761
-0.3010 IS? </s> -0.3010
-0.3010 IT TODAY? 0.0000
-0.3010 IT? </s> -0.3010
-1.0792 LIST </s> -0.3010
-1.0792 LIST ACCESS 0.0000
-1.0792 LIST BLOCK 0.0000
-1.0792 LIST MODULES 0.0000
-1.0792 LIST NETWORK 0.0000
-1.0792 LIST PROCESSES 0.0000
-0.3010 M </s> -0.3010
-0.3010 MACHINE </s> -0.3010
-0.3010 MATRIX </s> -0.3010
-0.3010 MAXIMIZE WINDOW 0.0000
-0.6021 ME </s> -0.3010
-0.9031 ME A 0.0000
-0.9031 ME ABOUT 0.0000
-0.6021 MIND </s> -0.3010
-0.6021 MIND DIRECTORY 0.0000
-0.3010 MINIMIZE WINDOW 0.0000
-0.3010 MODULES </s> -0.3010
-0.3010 MUTE </s> -0.3010
-0.3010 NETWORK DEVICES 0.0000
-0.6021 NEW FILE 0.0000
-0.6021 NEW TAB 0.0000
-0.3010 NEXT TAB 0.0000
-0.3010 NOTE </s> -0.3010
-0.3010 OF FILE 0.0000
-0.3010 OK COMPUTER 0.0000
-0.3010 ON WIRELESS 0.0000
-1.5051 OPEN ARCH 0.0000
-1.5051 OPEN ASSISTANT -0.2218
-1.2041 OPEN COMMANDS 0.0000
-1.5051 OPEN EDITOR 0.0000
-1.5051 OPEN FACEBOOK 0.0000
-1.5051 OPEN FIREFOX 0.0000
-1.5051 OPEN PROJECT -0.1761
-1.5051 OPEN STATUS 0.0000
-1.5051 OPEN STELLA 0.0000
-1.5051 OPEN TAB 0.0000
-1.5051 OPEN TERMINAL 0.0000
-1.2041 OPEN THE -0.1761
-1.5051 OPEN WEB 0.0000
-1.5051 OPEN YOUTUBE 0.0000
-0.3010 OTHER TABS 0.0000
-0.6021 PAGE DOWN 0.0000
-0.6021 PAGE UP 0.0000
-0.3010 PASTE </s> -0.3010
-0.3010 PILL </s> -0.3010
-0.3010 PLAY </s> -0.3010
-0.3010 POD BAY 0.0000
-0.3010 POINTS </s> -0.3010
-0.3010 PREVIOUS TAB 0.0000
-0.6021 PRINT MIND -0.1761
-0.6021 PRINT WORKING 0.0000
-0.3010 PROCESSES </s> -0.3010
-0.3010 PROGRAM </s> -0.3010
-0.6021 PROJECT EM 0.0000
-0.6021 PROJECT M 0.0000
-0.3010 QUIET </s> -0.3010
-1.0000 QUIT PROGRAM 0.0000
-1.0000 QUIT STATUS 0.0000
-1.0000 QUIT THE -0.2218
-1.0000 QUIT THUNDERBIRD 0.0000
-1.0000 QUIT WEB 0.0000
-0.3010 REBOOT ASSISTANT -0.1249
-0.3010 RECORD </s> -0.3010
-0.3010 RED PILL 0.0000
-0.3010 REWIND </s> -0.3010
-0.4260 ROOT </s> -0.3010
-0.9031 ROOT MIND -0.1761
-0.3010 RUN DIAGNOSTICS 0.0000
-0.6021 SAVE DOCUMENT 0.0000
-0.6021 SAVE FILE 0.0000
-0.6021 SCROLL DOWN 0.0000
-0.6021 SCROLL UP 0.0000
-0.3010 SEARCH WEB 0.0000
-0.3010 SELECT ALL 0.0000
-0.6021 SHOW STATUS 0.0000
-0.6021 SHOW USEFUL 0.0000
-0.3010 SILENCE </s> -0.3010
-0.3010 SILENT </s> -0.3010
-0.7782 SING A 0.0000
-0.7782 SING FOR 0.0000
-0.7782 SING ME -0.2430
-0.3010 SONG </s> -0.3010
-0.3010 STATUS </s> -0.3010
-0.3010 STELLA </s> -0.3010
-0.3010 SUSPEND MACHINE 0.0000
-0.3010 SWITCH TO -0.1761
-0.6021 SYSTEM INFO 0.0000
-0.6021 SYSTEM STATUS 0.0000
-0.3010 TAB </s> -0.3010
-0.3010 TABS </s> -0.3010
-0.3010 TALK TO -0.2430
-0.3010 TELL ME -0.2430
-0.3010 TERMINAL </s> -0.3010
-0.3010 THANKS ROOT -0.0969
-1.0792 THE POD 0.0000
-1.0792 THE TIME? 0.0000
-1.0792 THE WEATHER 0.0000
-1.0792 THE WEATHER? 0.0000
-0.7782 THE WEB 0.0000
-0.3010 THUNDERBIRD </s> -0.3010
-0.4771 TIME IS -0.1963
-0.7782 TIME IS? 0.0000
-0.3010 TIME? </s> -0.3010
-0.9031 TO * 0.0000
-0.9031 TO FIREFOX 0.0000
-0.9031 TO ME -0.1761
-0.9031 TO TERMINAL 0.0000
-0.3010 TODAY? </s> -0.3010
-0.3010 TURN ON 0.0000
-0.3010 UNDO </s> -0.3010
-0.3010 UP </s> -0.3010
-0.3010 USEFUL COMMANDS -0.1249
-0.3010 USERNAME </s> -0.3010
-0.3010 VOICE NOTE 0.0000
-0.7782 VOLUME DOWN 0.0000
-0.7782 VOLUME MUTE 0.0000
-0.7782 VOLUME UP 0.0000
-0.3010 WEATHER TODAY? 0.0000
-0.3010 WEATHER? </s> -0.3010
-0.3010 WEB </s> -0.3010
-0.8239 WHAT DAY 0.0000
-1.3010 WHAT DAY? 0.0000
-0.8239 WHAT IS -0.1963
-1.0000 WHAT TIME 0.0000
-1.3010 WHAT TIME? 0.0000
-0.3010 WIKI </s> -0.3010
-0.3010 WINDOW </s> -0.3010
-0.3010 WIRELESS </s> -0.3010
-0.3010 WORKING DIRECTORY 0.0000
-0.3010 YOU </s> -0.3010
-0.3010 YOUTUBE </s> -0.3010

\3-grams:
-0.3010 <s> ADDRESS </s>
-0.3010 <s> BACK FLIP
-0.6021 <s> BE QUIET
-0.6021 <s> BE SILENT
-0.3010 <s> BEGINNING OF
-0.3010 <s> CHECK EMAIL
-0.3010 <s> CLEAR </s>
-1.2553 <s> CLOSE *
-1.2553 <s> CLOSE </s>
-1.2553 <s> CLOSE ASSISTANT
-1.2553 <s> CLOSE OTHER
-1.2553 <s> CLOSE PROJECT
-1.2553 <s> CLOSE STATUS
-1.2553 <s> CLOSE TAB
-1.2553 <s> CLOSE TERMINAL
-1.2553 <s> CLOSE WINDOW
-0.3010 <s> COPY </s>
-0.3010 <s> CUT </s>
-0.3010 <s> DOWN </s>
-0.6021 <s> END </s>
-0.6021 <s> END OF
-0.3010 <s> ENTER </s>
-0.3010 <s> ESCAPE </s>
-0.3010 <s> FIND </s>
-0.3010 <s> FULLSCREEN </s>
-0.3010 <s> GO TO
-0.3010 <s> HELLO ROOT
-0.3010 <s> HOME </s>
-0.3010 <s> HOSTNAME </s>
-0.3010 <s> INVITE EVERYONE
-1.0792 <s> LIST </s>
-1.0792 <s> LIST ACCESS
-1.0792 <s> LIST BLOCK
-1.0792 <s> LIST MODULES
-1.0792 <s> LIST NETWORK
-1.0792 <s> LIST PROCESSES
-0.3010 <s> MATRIX </s>
-0.3010 <s> MAXIMIZE WINDOW
-0.3010 <s> MINIMIZE WINDOW
-0.6021 <s> NEW FILE
-0.6021 <s> NEW TAB
-0.3010 <s> NEXT TAB
-0.3010 <s> OK COMPUTER
-1.5051 <s> OPEN ARCH
-1.5051 <s> OPEN ASSISTANT
-1.2041 <s> OPEN COMMANDS
-1.5051 <s> OPEN EDITOR
-1.5051 <s> OPEN FACEBOOK
-1.5051 <s> OPEN FIREFOX
-1.5051 <s> OPEN PROJECT
-1.5051 <s> OPEN STATUS
-1.5051 <s> OPEN STELLA
-1.5051 <s> OPEN TAB
-1.5051 <s> OPEN TERMINAL
-1.2041 <s> OPEN THE
-1.5051 <s> OPEN WEB
-1.5051 <s> OPEN YOUTUBE
-0.6021 <s> PAGE DOWN
-0.6021 <s> PAGE UP
-0.3010 <s> PASTE </s>
-0.3010 <s> PLAY </s>
-0.3010 <s> PREVIOUS TAB
-0.6021 <s> PRINT MIND
-0.6021 <s> PRINT WORKING
-1.0000 <s> QUIT PROGRAM
-1.0000 <s> QUIT STATUS
-1.0000 <s> QUIT THE
-1.0000 <s> QUIT THUNDERBIRD
-1.0000 <s> QUIT WEB
-0.3010 <s> REBOOT ASSISTANT
-0.3010 <s> RECORD </s>
-0.3010 <s> RED PILL
-0.3010 <s> REWIND </s>
-0.6021 <s> ROOT </s>
-0.6021 <s> ROOT MIND
-0.3010 <s> RUN DIAGNOSTICS
-0.6021 <s> SAVE DOCUMENT
-0.6021 <s> SAVE FILE
-0.6021 <s> SCROLL DOWN
-0.6021 <s> SCROLL UP
-0.3010 <s> SEARCH WEB
-0.3010 <s> SELECT ALL
-0.6021 <s> SHOW STATUS
-0.6021 <s> SHOW USEFUL
-0.3010 <s> SILENCE </s>
-0.7782 <s> SING A
-0.7782 <s> SING FOR
-0.7782 <s> SING ME
-0.3010 <s> SUSPEND MACHINE
-0.3010 <s> SWITCH TO
-0.6021 <s> SYSTEM INFO
-0.6021 <s> SYSTEM STATUS
-0.3010 <s> TALK TO
-0.3010 <s> TELL ME
-0.3010 <s> TERMINAL </s>
-0.3010 <s> THANKS ROOT
-0.3010 <s> TIME IS
-0.3010 <s> TURN ON
-0.3010 <s> UNDO </s>
-0.3010 <s> USERNAME </s>
-0.3010 <s> VOICE NOTE
-0.7782 <s> VOLUME DOWN
-0.7782 <s> VOLUME MUTE
-0.7782 <s> VOLUME UP
-0.8239 <s> WHAT DAY
-1.3010 <s> WHAT DAY?
-0.8239 <s> WHAT IS
-1.0000 <s> WHAT TIME
-1.3010 <s> WHAT TIME?
-0.3010 A SONG </s>
-0.3010 ABOUT YOU </s>
-0.3010 ACCESS POINTS </s>
-0.3010 ARCH WIKI </s>
-0.3010 ASSISTANT FORUM </s>
-0.3010 BACK FLIP </s>
-0.3010 BAY DOORS </s>
-0.3010 BE QUIET </s>
-0.3010 BE SILENT </s>
-0.3010 BEGINNING OF FILE
-0.3010 BLOCK DEVICES </s>
-0.3010 CHECK EMAIL </s>
-0.3010 CLOSE * </s>
-0.3010 CLOSE ASSISTANT </s>
-0.3010 CLOSE OTHER TABS
-0.3010 CLOSE PROJECT M
-0.3010 CLOSE STATUS </s>
-0.3010 CLOSE TAB </s>
-0.3010 CLOSE TERMINAL </s>
-0.3010 CLOSE WINDOW </s>
-0.3010 COMMANDS FILE </s>
-0.6021 DAY IS IT
-0.6021 DAY IS IT?
-0.3010 DAY IS? </s>
-0.3010 END OF FILE
-0.3010 FOR ME </s>
-0.3010 GO TO *
-0.3010 HELLO ROOT </s>
-0.3010 INVITE EVERYONE </s>
-0.3010 IS IT TODAY?
-0.3010 IS IT? </s>
-0.7782 IS THE TIME?
-0.7782 IS THE WEATHER
-0.7782 IS THE WEATHER?
-0.3010 IT TODAY? </s>
-0.3010 LIST ACCESS POINTS
-0.3010 LIST BLOCK DEVICES
-0.3010 LIST MODULES </s>
-0.3010 LIST NETWORK DEVICES
-0.3010 LIST PROCESSES </s>
-0.3010 MAXIMIZE WINDOW </s>
-0.3010 ME A SONG
-0.3010 ME ABOUT YOU
-0.3010 MIND DIRECTORY </s>
-0.3010 MINIMIZE WINDOW </s>
-0.3010 NETWORK DEVICES </s>
-0.3010 NEW FILE </s>
-0.3010 NEW TAB </s>
-0.3010 NEXT TAB </s>
-0.3010 OF FILE </s>
-0.3010 OK COMPUTER </s>
-0.3010 ON WIRELESS </s>
-0.3010 OPEN ARCH WIKI
-0.3010 OPEN ASSISTANT FORUM
-0.6021 OPEN COMMANDS </s>
-0.6021 OPEN COMMANDS FILE
-0.3010 OPEN EDITOR </s>
-0.3010 OPEN FACEBOOK </s>
-0.3010 OPEN FIREFOX </s>
-0.3010 OPEN PROJECT EM
-0.3010 OPEN STATUS </s>
-0.3010 OPEN STELLA </s>
-0.3010 OPEN TAB </s>
-0.3010 OPEN TERMINAL </s>
-0.6021 OPEN THE POD
-0.6021 OPEN THE WEB
-0.3010 OPEN WEB </s>
-0.3010 OPEN YOUTUBE </s>
-0.3010 OTHER TABS </s>
-0.3010 PAGE DOWN </s>
-0.3010 PAGE UP </s>
-0.3010 POD BAY DOORS
-0.3010 PREVIOUS TAB </s>
-0.3010 PRINT MIND DIRECTORY
-0.3010 PRINT WORKING DIRECTORY
-0.3010 PROJECT EM </s>
-0.3010 PROJECT M </s>
-0.3010 QUIT PROGRAM </s>
-0.3010 QUIT STATUS </s>
-0.3010 QUIT THE WEB
-0.3010 QUIT THUNDERBIRD </s>
-0.3010 QUIT WEB </s>
-0.3010 REBOOT ASSISTANT </s>
-0.3010 RED PILL </s>
-0.3010 ROOT MIND </s>
-0.3010 RUN DIAGNOSTICS </s>
-0.3010 SAVE DOCUMENT </s>
-0.3010 SAVE FILE </s>
-0.3010 SCROLL DOWN </s>
-0.3010 SCROLL UP </s>
-0.3010 SEARCH WEB </s>
-0.3010 SELECT ALL </s>
-0.3010 SHOW STATUS </s>
-0.3010 SHOW USEFUL COMMANDS
-0.3010 SING A SONG
-0.3010 SING FOR ME
-0.3010 SING ME A
-0.3010 SUSPEND MACHINE </s>
-0.6021 SWITCH TO FIREFOX
-0.6021 SWITCH TO TERMINAL
-0.3010 SYSTEM INFO </s>
-0.3010 SYSTEM STATUS </s>
-0.3010 TALK TO ME
-0.3010 TELL ME ABOUT
-0.3010 THANKS ROOT </s>
-0.3010 THE POD BAY
-0.3010 THE TIME? </s>
-0.3010 THE WEATHER TODAY?
-0.3010 THE WEATHER? </s>
-0.3010 THE WEB </s>
-0.3010 TIME IS IT?
-0.3010 TIME IS? </s>
-0.3010 TO * </s>
-0.3010 TO FIREFOX </s>
-0.3010 TO ME </s>
-0.3010 TO TERMINAL </s>
-0.3010 TURN ON WIRELESS
-0.3010 USEFUL COMMANDS </s>
-0.3010 VOICE NOTE </s>
-0.3010 VOLUME DOWN </s>
-0.3010 VOLUME MUTE </s>
-0.3010 VOLUME UP </s>
-0.3010 WEATHER TODAY? </s>
-0.4771 WHAT DAY IS
-0.7782 WHAT DAY IS?
-0.3010 WHAT DAY? </s>
-0.3010 WHAT IS THE
-0.6021 WHAT TIME IS
-0.6021 WHAT TIME IS?
-0.3010 WHAT TIME? </s>
-0.3010 WORKING DIRECTORY </s>

\end\
