Language model created by QuickLM on Sat Mar 31 17:35:33 EDT 2018
Copyright (c) 1996-2010 Carnegie Mellon University and Alexander I. Rudnicky

The model is in standard ARPA format, designed by Doug Paul while he was at MITRE.

The code that was used to produce this language model is available in Open Source.
Please visit http://www.speech.cs.cmu.edu/tools/ for more information

The (fixed) discount mass is 0.5. The backoffs are computed using the ratio method.
This model based on a corpus of 118 sentences and 120 words

\data\
ngram 1=120
ngram 2=236
ngram 3=118

\1-grams:
-0.7782 </s> -0.3010
-0.7782 <s> -0.2218
-2.8500 BACKFLIP -0.2218
-2.8500 BEGINNINGOFFILE -0.2218
-2.8500 BEQUIET -0.2218
-2.8500 BESILENT -0.2218
-2.8500 CHECKEMAIL -0.2218
-2.8500 CLEAR -0.2218
-2.8500 CLOSEASSISTANT -0.2218
-2.8500 CLOSEEMAIL -0.2218
-2.8500 CLOSEFIREFOX -0.2218
-2.8500 CLOSEOTHERTABS -0.2218
-2.8500 CLOSEPROJECTM -0.2218
-2.8500 CLOSESTATUS -0.2218
-2.8500 CLOSETAB -0.2218
-2.8500 CLOSETERMINAL -0.2218
-2.8500 CLOSEWINDOW -0.2218
-2.8500 CONTROLC -0.2218
-2.8500 COPY -0.2218
-2.8500 CUT -0.2218
-2.8500 DOWN -0.2218
-2.8500 ECHOADDRESS -0.2218
-2.8500 ECHOHOSTNAME -0.2218
-2.8500 ECHOUSERNAME -0.2218
-2.8500 END -0.2218
-2.8500 ENDOFFILE -0.2218
-2.8500 ENTER -0.2218
-2.8500 ESCAPE -0.2218
-2.8500 FIND -0.2218
-2.8500 FULLSCREEN -0.2218
-2.8500 GOTOFIREFOX -0.2218
-2.8500 GOTOTERMINAL -0.2218
-2.8500 GOTOTHEWEB -0.2218
-2.8500 HELLOROOT -0.2218
-2.8500 HOME -0.2218
-2.8500 INVITEEVERYONE -0.2218
-2.8500 LIST -0.2218
-2.8500 LISTACCESSPOINTS -0.2218
-2.8500 LISTBLOCKDEVICES -0.2218
-2.8500 LISTMODULES -0.2218
-2.8500 LISTNETWORKDEVICES -0.2218
-2.8500 LISTPROCESSES -0.2218
-2.8500 MATRIX -0.2218
-2.8500 MAXIMIZEWINDOW -0.2218
-2.8500 MINIMIZEWINDOW -0.2218
-2.8500 NEWFILE -0.2218
-2.8500 NEWTAB -0.2218
-2.8500 NEXTTAB -0.2218
-2.8500 OKCOMPUTER -0.2218
-2.8500 OPENARCHWIKI -0.2218
-2.8500 OPENASSISTANTFORUM -0.2218
-2.8500 OPENCOMMANDS -0.2218
-2.8500 OPENCOMMANDSFILE -0.2218
-2.8500 OPENEDITOR -0.2218
-2.8500 OPENFACEBOOK -0.2218
-2.8500 OPENFIREFOX -0.2218
-2.8500 OPENPROJECTEM -0.2218
-2.8500 OPENSTATUS -0.2218
-2.8500 OPENSTELLA -0.2218
-2.8500 OPENTAB -0.2218
-2.8500 OPENTERMINAL -0.2218
-2.8500 OPENTHEPODBAYDOORS -0.2218
-2.8500 OPENTHEWEB -0.2218
-2.8500 OPENWEB -0.2218
-2.8500 OPENYOUTUBE -0.2218
-2.8500 PAGEDOWN -0.2218
-2.8500 PAGEUP -0.2218
-2.8500 PASTE -0.2218
-2.8500 PLAY -0.2218
-2.8500 PREVIOUSTAB -0.2218
-2.8500 PRINTMINDDIRECTORY -0.2218
-2.8500 PRINTWORKINGDIRECTORY -0.2218
-2.8500 QUITPROGRAM -0.2218
-2.8500 QUITSTATUS -0.2218
-2.8500 QUITTHEWEB -0.2218
-2.8500 QUITTHUNDERBIRD -0.2218
-2.8500 QUITWEB -0.2218
-2.8500 REBOOTASSISTANT -0.2218
-2.8500 RECORD -0.2218
-2.8500 REDPILL -0.2218
-2.8500 REWIND -0.2218
-2.8500 ROOT -0.2218
-2.8500 ROOTMIND -0.2218
-2.8500 RUNDIAGNOSTICS -0.2218
-2.8500 SAVEDOCUMENT -0.2218
-2.8500 SAVEFILE -0.2218
-2.8500 SCROLLDOWN -0.2218
-2.8500 SCROLLUP -0.2218
-2.8500 SEARCHWEB -0.2218
-2.8500 SELECTALL -0.2218
-2.8500 SHOWSTATUS -0.2218
-2.8500 SHOWUSEFULCOMMANDS -0.2218
-2.8500 SINGASONG -0.2218
-2.8500 SINGFORME -0.2218
-2.8500 SINGMEASONG -0.2218
-2.8500 SUSPENDMACHINE -0.2218
-2.8500 SWITCHTOFIREFOX -0.2218
-2.8500 SWITCHTOTERMINAL -0.2218
-2.8500 SYSTEMSTATUS -0.2218
-2.8500 TALKTOME -0.2218
-2.8500 TELLMEABOUTYOU -0.2218
-2.8500 TERMINAL -0.2218
-2.8500 THANKSROOT -0.2218
-2.8500 TIMEISIT -0.2218
-2.8500 TURNONWIRELESS -0.2218
-2.8500 UNDO -0.2218
-2.8500 VOICENOTE -0.2218
-2.8500 VOLUMEDOWN -0.2218
-2.8500 VOLUMEMUTE -0.2218
-2.8500 VOLUMEUP -0.2218
-2.8500 WHATDAY -0.2218
-2.8500 WHATDAYIS -0.2218
-2.8500 WHATDAYISIT -0.2218
-2.8500 WHATDAYISITTODAY -0.2218
-2.8500 WHATISTHETIME -0.2218
-2.8500 WHATISTHEWEATHER -0.2218
-2.8500 WHATISTHEWEATHERTODAY -0.2218
-2.8500 WHATTIME -0.2218
-2.8500 WHATTIMEIS -0.2218
-2.8500 WHATTIMEISIT -0.2218

\2-grams:
-2.3729 <s> BACKFLIP 0.0000
-2.3729 <s> BEGINNINGOFFILE 0.0000
-2.3729 <s> BEQUIET 0.0000
-2.3729 <s> BESILENT 0.0000
-2.3729 <s> CHECKEMAIL 0.0000
-2.3729 <s> CLEAR 0.0000
-2.3729 <s> CLOSEASSISTANT 0.0000
-2.3729 <s> CLOSEEMAIL 0.0000
-2.3729 <s> CLOSEFIREFOX 0.0000
-2.3729 <s> CLOSEOTHERTABS 0.0000
-2.3729 <s> CLOSEPROJECTM 0.0000
-2.3729 <s> CLOSESTATUS 0.0000
-2.3729 <s> CLOSETAB 0.0000
-2.3729 <s> CLOSETERMINAL 0.0000
-2.3729 <s> CLOSEWINDOW 0.0000
-2.3729 <s> CONTROLC 0.0000
-2.3729 <s> COPY 0.0000
-2.3729 <s> CUT 0.0000
-2.3729 <s> DOWN 0.0000
-2.3729 <s> ECHOADDRESS 0.0000
-2.3729 <s> ECHOHOSTNAME 0.0000
-2.3729 <s> ECHOUSERNAME 0.0000
-2.3729 <s> END 0.0000
-2.3729 <s> ENDOFFILE 0.0000
-2.3729 <s> ENTER 0.0000
-2.3729 <s> ESCAPE 0.0000
-2.3729 <s> FIND 0.0000
-2.3729 <s> FULLSCREEN 0.0000
-2.3729 <s> GOTOFIREFOX 0.0000
-2.3729 <s> GOTOTERMINAL 0.0000
-2.3729 <s> GOTOTHEWEB 0.0000
-2.3729 <s> HELLOROOT 0.0000
-2.3729 <s> HOME 0.0000
-2.3729 <s> INVITEEVERYONE 0.0000
-2.3729 <s> LIST 0.0000
-2.3729 <s> LISTACCESSPOINTS 0.0000
-2.3729 <s> LISTBLOCKDEVICES 0.0000
-2.3729 <s> LISTMODULES 0.0000
-2.3729 <s> LISTNETWORKDEVICES 0.0000
-2.3729 <s> LISTPROCESSES 0.0000
-2.3729 <s> MATRIX 0.0000
-2.3729 <s> MAXIMIZEWINDOW 0.0000
-2.3729 <s> MINIMIZEWINDOW 0.0000
-2.3729 <s> NEWFILE 0.0000
-2.3729 <s> NEWTAB 0.0000
-2.3729 <s> NEXTTAB 0.0000
-2.3729 <s> OKCOMPUTER 0.0000
-2.3729 <s> OPENARCHWIKI 0.0000
-2.3729 <s> OPENASSISTANTFORUM 0.0000
-2.3729 <s> OPENCOMMANDS 0.0000
-2.3729 <s> OPENCOMMANDSFILE 0.0000
-2.3729 <s> OPENEDITOR 0.0000
-2.3729 <s> OPENFACEBOOK 0.0000
-2.3729 <s> OPENFIREFOX 0.0000
-2.3729 <s> OPENPROJECTEM 0.0000
-2.3729 <s> OPENSTATUS 0.0000
-2.3729 <s> OPENSTELLA 0.0000
-2.3729 <s> OPENTAB 0.0000
-2.3729 <s> OPENTERMINAL 0.0000
-2.3729 <s> OPENTHEPODBAYDOORS 0.0000
-2.3729 <s> OPENTHEWEB 0.0000
-2.3729 <s> OPENWEB 0.0000
-2.3729 <s> OPENYOUTUBE 0.0000
-2.3729 <s> PAGEDOWN 0.0000
-2.3729 <s> PAGEUP 0.0000
-2.3729 <s> PASTE 0.0000
-2.3729 <s> PLAY 0.0000
-2.3729 <s> PREVIOUSTAB 0.0000
-2.3729 <s> PRINTMINDDIRECTORY 0.0000
-2.3729 <s> PRINTWORKINGDIRECTORY 0.0000
-2.3729 <s> QUITPROGRAM 0.0000
-2.3729 <s> QUITSTATUS 0.0000
-2.3729 <s> QUITTHEWEB 0.0000
-2.3729 <s> QUITTHUNDERBIRD 0.0000
-2.3729 <s> QUITWEB 0.0000
-2.3729 <s> REBOOTASSISTANT 0.0000
-2.3729 <s> RECORD 0.0000
-2.3729 <s> REDPILL 0.0000
-2.3729 <s> REWIND 0.0000
-2.3729 <s> ROOT 0.0000
-2.3729 <s> ROOTMIND 0.0000
-2.3729 <s> RUNDIAGNOSTICS 0.0000
-2.3729 <s> SAVEDOCUMENT 0.0000
-2.3729 <s> SAVEFILE 0.0000
-2.3729 <s> SCROLLDOWN 0.0000
-2.3729 <s> SCROLLUP 0.0000
-2.3729 <s> SEARCHWEB 0.0000
-2.3729 <s> SELECTALL 0.0000
-2.3729 <s> SHOWSTATUS 0.0000
-2.3729 <s> SHOWUSEFULCOMMANDS 0.0000
-2.3729 <s> SINGASONG 0.0000
-2.3729 <s> SINGFORME 0.0000
-2.3729 <s> SINGMEASONG 0.0000
-2.3729 <s> SUSPENDMACHINE 0.0000
-2.3729 <s> SWITCHTOFIREFOX 0.0000
-2.3729 <s> SWITCHTOTERMINAL 0.0000
-2.3729 <s> SYSTEMSTATUS 0.0000
-2.3729 <s> TALKTOME 0.0000
-2.3729 <s> TELLMEABOUTYOU 0.0000
-2.3729 <s> TERMINAL 0.0000
-2.3729 <s> THANKSROOT 0.0000
-2.3729 <s> TIMEISIT 0.0000
-2.3729 <s> TURNONWIRELESS 0.0000
-2.3729 <s> UNDO 0.0000
-2.3729 <s> VOICENOTE 0.0000
-2.3729 <s> VOLUMEDOWN 0.0000
-2.3729 <s> VOLUMEMUTE 0.0000
-2.3729 <s> VOLUMEUP 0.0000
-2.3729 <s> WHATDAY 0.0000
-2.3729 <s> WHATDAYIS 0.0000
-2.3729 <s> WHATDAYISIT 0.0000
-2.3729 <s> WHATDAYISITTODAY 0.0000
-2.3729 <s> WHATISTHETIME 0.0000
-2.3729 <s> WHATISTHEWEATHER 0.0000
-2.3729 <s> WHATISTHEWEATHERTODAY 0.0000
-2.3729 <s> WHATTIME 0.0000
-2.3729 <s> WHATTIMEIS 0.0000
-2.3729 <s> WHATTIMEISIT 0.0000
-0.3010 BACKFLIP </s> -0.3010
-0.3010 BEGINNINGOFFILE </s> -0.3010
-0.3010 BEQUIET </s> -0.3010
-0.3010 BESILENT </s> -0.3010
-0.3010 CHECKEMAIL </s> -0.3010
-0.3010 CLEAR </s> -0.3010
-0.3010 CLOSEASSISTANT </s> -0.3010
-0.3010 CLOSEEMAIL </s> -0.3010
-0.3010 CLOSEFIREFOX </s> -0.3010
-0.3010 CLOSEOTHERTABS </s> -0.3010
-0.3010 CLOSEPROJECTM </s> -0.3010
-0.3010 CLOSESTATUS </s> -0.3010
-0.3010 CLOSETAB </s> -0.3010
-0.3010 CLOSETERMINAL </s> -0.3010
-0.3010 CLOSEWINDOW </s> -0.3010
-0.3010 CONTROLC </s> -0.3010
-0.3010 COPY </s> -0.3010
-0.3010 CUT </s> -0.3010
-0.3010 DOWN </s> -0.3010
-0.3010 ECHOADDRESS </s> -0.3010
-0.3010 ECHOHOSTNAME </s> -0.3010
-0.3010 ECHOUSERNAME </s> -0.3010
-0.3010 END </s> -0.3010
-0.3010 ENDOFFILE </s> -0.3010
-0.3010 ENTER </s> -0.3010
-0.3010 ESCAPE </s> -0.3010
-0.3010 FIND </s> -0.3010
-0.3010 FULLSCREEN </s> -0.3010
-0.3010 GOTOFIREFOX </s> -0.3010
-0.3010 GOTOTERMINAL </s> -0.3010
-0.3010 GOTOTHEWEB </s> -0.3010
-0.3010 HELLOROOT </s> -0.3010
-0.3010 HOME </s> -0.3010
-0.3010 INVITEEVERYONE </s> -0.3010
-0.3010 LIST </s> -0.3010
-0.3010 LISTACCESSPOINTS </s> -0.3010
-0.3010 LISTBLOCKDEVICES </s> -0.3010
-0.3010 LISTMODULES </s> -0.3010
-0.3010 LISTNETWORKDEVICES </s> -0.3010
-0.3010 LISTPROCESSES </s> -0.3010
-0.3010 MATRIX </s> -0.3010
-0.3010 MAXIMIZEWINDOW </s> -0.3010
-0.3010 MINIMIZEWINDOW </s> -0.3010
-0.3010 NEWFILE </s> -0.3010
-0.3010 NEWTAB </s> -0.3010
-0.3010 NEXTTAB </s> -0.3010
-0.3010 OKCOMPUTER </s> -0.3010
-0.3010 OPENARCHWIKI </s> -0.3010
-0.3010 OPENASSISTANTFORUM </s> -0.3010
-0.3010 OPENCOMMANDS </s> -0.3010
-0.3010 OPENCOMMANDSFILE </s> -0.3010
-0.3010 OPENEDITOR </s> -0.3010
-0.3010 OPENFACEBOOK </s> -0.3010
-0.3010 OPENFIREFOX </s> -0.3010
-0.3010 OPENPROJECTEM </s> -0.3010
-0.3010 OPENSTATUS </s> -0.3010
-0.3010 OPENSTELLA </s> -0.3010
-0.3010 OPENTAB </s> -0.3010
-0.3010 OPENTERMINAL </s> -0.3010
-0.3010 OPENTHEPODBAYDOORS </s> -0.3010
-0.3010 OPENTHEWEB </s> -0.3010
-0.3010 OPENWEB </s> -0.3010
-0.3010 OPENYOUTUBE </s> -0.3010
-0.3010 PAGEDOWN </s> -0.3010
-0.3010 PAGEUP </s> -0.3010
-0.3010 PASTE </s> -0.3010
-0.3010 PLAY </s> -0.3010
-0.3010 PREVIOUSTAB </s> -0.3010
-0.3010 PRINTMINDDIRECTORY </s> -0.3010
-0.3010 PRINTWORKINGDIRECTORY </s> -0.3010
-0.3010 QUITPROGRAM </s> -0.3010
-0.3010 QUITSTATUS </s> -0.3010
-0.3010 QUITTHEWEB </s> -0.3010
-0.3010 QUITTHUNDERBIRD </s> -0.3010
-0.3010 QUITWEB </s> -0.3010
-0.3010 REBOOTASSISTANT </s> -0.3010
-0.3010 RECORD </s> -0.3010
-0.3010 REDPILL </s> -0.3010
-0.3010 REWIND </s> -0.3010
-0.3010 ROOT </s> -0.3010
-0.3010 ROOTMIND </s> -0.3010
-0.3010 RUNDIAGNOSTICS </s> -0.3010
-0.3010 SAVEDOCUMENT </s> -0.3010
-0.3010 SAVEFILE </s> -0.3010
-0.3010 SCROLLDOWN </s> -0.3010
-0.3010 SCROLLUP </s> -0.3010
-0.3010 SEARCHWEB </s> -0.3010
-0.3010 SELECTALL </s> -0.3010
-0.3010 SHOWSTATUS </s> -0.3010
-0.3010 SHOWUSEFULCOMMANDS </s> -0.3010
-0.3010 SINGASONG </s> -0.3010
-0.3010 SINGFORME </s> -0.3010
-0.3010 SINGMEASONG </s> -0.3010
-0.3010 SUSPENDMACHINE </s> -0.3010
-0.3010 SWITCHTOFIREFOX </s> -0.3010
-0.3010 SWITCHTOTERMINAL </s> -0.3010
-0.3010 SYSTEMSTATUS </s> -0.3010
-0.3010 TALKTOME </s> -0.3010
-0.3010 TELLMEABOUTYOU </s> -0.3010
-0.3010 TERMINAL </s> -0.3010
-0.3010 THANKSROOT </s> -0.3010
-0.3010 TIMEISIT </s> -0.3010
-0.3010 TURNONWIRELESS </s> -0.3010
-0.3010 UNDO </s> -0.3010
-0.3010 VOICENOTE </s> -0.3010
-0.3010 VOLUMEDOWN </s> -0.3010
-0.3010 VOLUMEMUTE </s> -0.3010
-0.3010 VOLUMEUP </s> -0.3010
-0.3010 WHATDAY </s> -0.3010
-0.3010 WHATDAYIS </s> -0.3010
-0.3010 WHATDAYISIT </s> -0.3010
-0.3010 WHATDAYISITTODAY </s> -0.3010
-0.3010 WHATISTHETIME </s> -0.3010
-0.3010 WHATISTHEWEATHER </s> -0.3010
-0.3010 WHATISTHEWEATHERTODAY </s> -0.3010
-0.3010 WHATTIME </s> -0.3010
-0.3010 WHATTIMEIS </s> -0.3010
-0.3010 WHATTIMEISIT </s> -0.3010

\3-grams:
-0.3010 <s> BACKFLIP </s>
-0.3010 <s> BEGINNINGOFFILE </s>
-0.3010 <s> BEQUIET </s>
-0.3010 <s> BESILENT </s>
-0.3010 <s> CHECKEMAIL </s>
-0.3010 <s> CLEAR </s>
-0.3010 <s> CLOSEASSISTANT </s>
-0.3010 <s> CLOSEEMAIL </s>
-0.3010 <s> CLOSEFIREFOX </s>
-0.3010 <s> CLOSEOTHERTABS </s>
-0.3010 <s> CLOSEPROJECTM </s>
-0.3010 <s> CLOSESTATUS </s>
-0.3010 <s> CLOSETAB </s>
-0.3010 <s> CLOSETERMINAL </s>
-0.3010 <s> CLOSEWINDOW </s>
-0.3010 <s> CONTROLC </s>
-0.3010 <s> COPY </s>
-0.3010 <s> CUT </s>
-0.3010 <s> DOWN </s>
-0.3010 <s> ECHOADDRESS </s>
-0.3010 <s> ECHOHOSTNAME </s>
-0.3010 <s> ECHOUSERNAME </s>
-0.3010 <s> END </s>
-0.3010 <s> ENDOFFILE </s>
-0.3010 <s> ENTER </s>
-0.3010 <s> ESCAPE </s>
-0.3010 <s> FIND </s>
-0.3010 <s> FULLSCREEN </s>
-0.3010 <s> GOTOFIREFOX </s>
-0.3010 <s> GOTOTERMINAL </s>
-0.3010 <s> GOTOTHEWEB </s>
-0.3010 <s> HELLOROOT </s>
-0.3010 <s> HOME </s>
-0.3010 <s> INVITEEVERYONE </s>
-0.3010 <s> LIST </s>
-0.3010 <s> LISTACCESSPOINTS </s>
-0.3010 <s> LISTBLOCKDEVICES </s>
-0.3010 <s> LISTMODULES </s>
-0.3010 <s> LISTNETWORKDEVICES </s>
-0.3010 <s> LISTPROCESSES </s>
-0.3010 <s> MATRIX </s>
-0.3010 <s> MAXIMIZEWINDOW </s>
-0.3010 <s> MINIMIZEWINDOW </s>
-0.3010 <s> NEWFILE </s>
-0.3010 <s> NEWTAB </s>
-0.3010 <s> NEXTTAB </s>
-0.3010 <s> OKCOMPUTER </s>
-0.3010 <s> OPENARCHWIKI </s>
-0.3010 <s> OPENASSISTANTFORUM </s>
-0.3010 <s> OPENCOMMANDS </s>
-0.3010 <s> OPENCOMMANDSFILE </s>
-0.3010 <s> OPENEDITOR </s>
-0.3010 <s> OPENFACEBOOK </s>
-0.3010 <s> OPENFIREFOX </s>
-0.3010 <s> OPENPROJECTEM </s>
-0.3010 <s> OPENSTATUS </s>
-0.3010 <s> OPENSTELLA </s>
-0.3010 <s> OPENTAB </s>
-0.3010 <s> OPENTERMINAL </s>
-0.3010 <s> OPENTHEPODBAYDOORS </s>
-0.3010 <s> OPENTHEWEB </s>
-0.3010 <s> OPENWEB </s>
-0.3010 <s> OPENYOUTUBE </s>
-0.3010 <s> PAGEDOWN </s>
-0.3010 <s> PAGEUP </s>
-0.3010 <s> PASTE </s>
-0.3010 <s> PLAY </s>
-0.3010 <s> PREVIOUSTAB </s>
-0.3010 <s> PRINTMINDDIRECTORY </s>
-0.3010 <s> PRINTWORKINGDIRECTORY </s>
-0.3010 <s> QUITPROGRAM </s>
-0.3010 <s> QUITSTATUS </s>
-0.3010 <s> QUITTHEWEB </s>
-0.3010 <s> QUITTHUNDERBIRD </s>
-0.3010 <s> QUITWEB </s>
-0.3010 <s> REBOOTASSISTANT </s>
-0.3010 <s> RECORD </s>
-0.3010 <s> REDPILL </s>
-0.3010 <s> REWIND </s>
-0.3010 <s> ROOT </s>
-0.3010 <s> ROOTMIND </s>
-0.3010 <s> RUNDIAGNOSTICS </s>
-0.3010 <s> SAVEDOCUMENT </s>
-0.3010 <s> SAVEFILE </s>
-0.3010 <s> SCROLLDOWN </s>
-0.3010 <s> SCROLLUP </s>
-0.3010 <s> SEARCHWEB </s>
-0.3010 <s> SELECTALL </s>
-0.3010 <s> SHOWSTATUS </s>
-0.3010 <s> SHOWUSEFULCOMMANDS </s>
-0.3010 <s> SINGASONG </s>
-0.3010 <s> SINGFORME </s>
-0.3010 <s> SINGMEASONG </s>
-0.3010 <s> SUSPENDMACHINE </s>
-0.3010 <s> SWITCHTOFIREFOX </s>
-0.3010 <s> SWITCHTOTERMINAL </s>
-0.3010 <s> SYSTEMSTATUS </s>
-0.3010 <s> TALKTOME </s>
-0.3010 <s> TELLMEABOUTYOU </s>
-0.3010 <s> TERMINAL </s>
-0.3010 <s> THANKSROOT </s>
-0.3010 <s> TIMEISIT </s>
-0.3010 <s> TURNONWIRELESS </s>
-0.3010 <s> UNDO </s>
-0.3010 <s> VOICENOTE </s>
-0.3010 <s> VOLUMEDOWN </s>
-0.3010 <s> VOLUMEMUTE </s>
-0.3010 <s> VOLUMEUP </s>
-0.3010 <s> WHATDAY </s>
-0.3010 <s> WHATDAYIS </s>
-0.3010 <s> WHATDAYISIT </s>
-0.3010 <s> WHATDAYISITTODAY </s>
-0.3010 <s> WHATISTHETIME </s>
-0.3010 <s> WHATISTHEWEATHER </s>
-0.3010 <s> WHATISTHEWEATHERTODAY </s>
-0.3010 <s> WHATTIME </s>
-0.3010 <s> WHATTIMEIS </s>
-0.3010 <s> WHATTIMEISIT </s>

\end\
