Language model created by QuickLM on Sun Jul 15 05:05:27 EDT 2018
Copyright (c) 1996-2010 Carnegie Mellon University and Alexander I. Rudnicky

The model is in standard ARPA format, designed by Doug Paul while he was at MITRE.

The code that was used to produce this language model is available in Open Source.
Please visit http://www.speech.cs.cmu.edu/tools/ for more information

The (fixed) discount mass is 0.5. The backoffs are computed using the ratio method.
This model based on a corpus of 11 sentences and 27 words

\data\
ngram 1=27
ngram 2=37
ngram 3=32

\1-grams:
-1.0078 </s> -0.3010
-1.0078 <s> -0.2561
-2.0492 A -0.2971
-2.0492 ASSISTANT -0.2561
-2.0492 CAN -0.2932
-2.0492 CLOSE -0.2971
-2.0492 COMMANDS -0.2561
-2.0492 DAY -0.2892
-2.0492 DIAGNOSTICS -0.2561
-2.0492 DID -0.2932
-1.7482 I -0.2932
-1.5721 IS -0.2892
-1.7482 IT -0.2561
-2.0492 LIST -0.2971
-2.0492 MIND -0.2561
-2.0492 NEWS -0.2561
-2.0492 READ -0.2971
-2.0492 ROOT -0.2971
-2.0492 RUN -0.2971
-1.7482 SAY -0.2561
-2.0492 SING -0.2971
-2.0492 SONG -0.2561
-2.0492 THE -0.2971
-2.0492 TIME -0.2892
-2.0492 WEATHER -0.2561
-1.3502 WHAT -0.2730
-2.0492 WORLD -0.2971

\2-grams:
-1.3424 <s> CLOSE 0.0000
-1.3424 <s> LIST 0.0000
-1.3424 <s> READ 0.0000
-1.3424 <s> ROOT 0.0000
-1.3424 <s> RUN 0.0000
-1.3424 <s> SING 0.0000
-0.6435 <s> WHAT 0.0000
-0.3010 A SONG 0.0000
-0.3010 ASSISTANT </s> -0.3010
-0.3010 CAN I 0.0000
-0.3010 CLOSE ASSISTANT 0.0000
-0.3010 COMMANDS </s> -0.3010
-0.3010 DAY IS -0.1249
-0.3010 DIAGNOSTICS </s> -0.3010
-0.3010 DID I 0.0000
-0.3010 I SAY 0.0000
-0.4771 IS IT 0.0000
-0.7782 IS THE 0.0000
-0.3010 IT </s> -0.3010
-0.3010 LIST COMMANDS 0.0000
-0.3010 MIND </s> -0.3010
-0.3010 NEWS </s> -0.3010
-0.3010 READ WORLD 0.0000
-0.3010 ROOT MIND 0.0000
-0.3010 RUN DIAGNOSTICS 0.0000
-0.3010 SAY </s> -0.3010
-0.3010 SING A 0.0000
-0.3010 SONG </s> -0.3010
-0.3010 THE WEATHER 0.0000
-0.3010 TIME IS -0.1249
-0.3010 WEATHER </s> -0.3010
-1.0000 WHAT CAN 0.0000
-1.0000 WHAT DAY 0.0000
-1.0000 WHAT DID 0.0000
-1.0000 WHAT IS -0.2218
-1.0000 WHAT TIME 0.0000
-0.3010 WORLD NEWS 0.0000

\3-grams:
-0.3010 <s> CLOSE ASSISTANT
-0.3010 <s> LIST COMMANDS
-0.3010 <s> READ WORLD
-0.3010 <s> ROOT MIND
-0.3010 <s> RUN DIAGNOSTICS
-0.3010 <s> SING A
-1.0000 <s> WHAT CAN
-1.0000 <s> WHAT DAY
-1.0000 <s> WHAT DID
-1.0000 <s> WHAT IS
-1.0000 <s> WHAT TIME
-0.3010 A SONG </s>
-0.3010 CAN I SAY
-0.3010 CLOSE ASSISTANT </s>
-0.3010 DAY IS IT
-0.3010 DID I SAY
-0.3010 I SAY </s>
-0.3010 IS IT </s>
-0.3010 IS THE WEATHER
-0.3010 LIST COMMANDS </s>
-0.3010 READ WORLD NEWS
-0.3010 ROOT MIND </s>
-0.3010 RUN DIAGNOSTICS </s>
-0.3010 SING A SONG
-0.3010 THE WEATHER </s>
-0.3010 TIME IS IT
-0.3010 WHAT CAN I
-0.3010 WHAT DAY IS
-0.3010 WHAT DID I
-0.3010 WHAT IS THE
-0.3010 WHAT TIME IS
-0.3010 WORLD NEWS </s>

\end\
