Language model created by QuickLM on Sun May 16 05:06:56 EDT 2021
Copyright (c) 1996-2010 Carnegie Mellon University and Alexander I. Rudnicky

The model is in standard ARPA format, designed by Doug Paul while he was at MITRE.

The code that was used to produce this language model is available in Open Source.
Please visit http://www.speech.cs.cmu.edu/tools/ for more information

The (fixed) discount mass is 0.5. The backoffs are computed using the ratio method.
This model based on a corpus of 5 sentences and 11 words

\data\
ngram 1=11
ngram 2=14
ngram 3=9

\1-grams:
-0.8808 </s> -0.3010
-0.8808 <s> -0.2398
-1.5798 ASSISTANT -0.2398
-1.5798 BOOT -0.2894
-1.5798 COMMANDS -0.2398
-1.5798 HELP -0.2398
-1.5798 LIST -0.2894
-1.5798 LISTENING -0.2398
-1.5798 MIND -0.2398
-1.5798 OPEN -0.2894
-1.5798 STOP -0.2894

\2-grams:
-1.0000 <s> BOOT 0.0000
-1.0000 <s> HELP 0.0000
-1.0000 <s> LIST 0.0000
-1.0000 <s> OPEN 0.0000
-1.0000 <s> STOP 0.0000
-0.3010 ASSISTANT </s> -0.3010
-0.3010 BOOT MIND 0.0000
-0.3010 COMMANDS </s> -0.3010
-0.3010 HELP </s> -0.3010
-0.3010 LIST COMMANDS 0.0000
-0.3010 LISTENING </s> -0.3010
-0.3010 MIND </s> -0.3010
-0.3010 OPEN ASSISTANT 0.0000
-0.3010 STOP LISTENING 0.0000

\3-grams:
-0.3010 <s> BOOT MIND
-0.3010 <s> HELP </s>
-0.3010 <s> LIST COMMANDS
-0.3010 <s> OPEN ASSISTANT
-0.3010 <s> STOP LISTENING
-0.3010 BOOT MIND </s>
-0.3010 LIST COMMANDS </s>
-0.3010 OPEN ASSISTANT </s>
-0.3010 STOP LISTENING </s>

\end\
