Language model created by QuickLM on Sat Mar 31 17:35:34 EDT 2018
Copyright (c) 1996-2010 Carnegie Mellon University and Alexander I. Rudnicky

The model is in standard ARPA format, designed by Doug Paul while he was at MITRE.

The code that was used to produce this language model is available in Open Source.
Please visit http://www.speech.cs.cmu.edu/tools/ for more information

The (fixed) discount mass is 0.5. The backoffs are computed using the ratio method.
This model based on a corpus of 512 sentences and 514 words

\data\
ngram 1=514
ngram 2=1024
ngram 3=512

\1-grams:
-0.7782 </s> -0.3010
-0.7782 <s> -0.2218
-3.4874 ABSOLUTELY -0.2218
-3.4874 ABSOLUTELYNOT -0.2218
-3.4874 ABSURD -0.2218
-3.4874 AFFIRMATIVE -0.2218
-3.4874 AHDAMMIT -0.2218
-3.4874 AHDAMN -0.2218
-3.4874 AHGREAT -0.2218
-3.4874 AHSHIT -0.2218
-3.4874 ALLRIGHT -0.2218
-3.4874 ALLRIGHTSTELLA -0.2218
-3.4874 AMAZING -0.2218
-3.4874 AMAZINGDUDE -0.2218
-3.4874 AMFINE -0.2218
-3.4874 AMOK -0.2218
-3.4874 AMTIRED -0.2218
-3.4874 AREWEONLINE -0.2218
-3.4874 AREYOU -0.2218
-3.4874 AREYOUCONFUSED -0.2218
-3.4874 AREYOUHERE -0.2218
-3.4874 AREYOUREAL -0.2218
-3.4874 AREYOUSURE -0.2218
-3.4874 AREYOUTELLINGMEWHATTODO -0.2218
-3.4874 AREYOUTHERE -0.2218
-3.4874 AWESOME -0.2218
-3.4874 AWESOMEDUDE -0.2218
-3.4874 AWESOMEJOB -0.2218
-3.4874 AWESOMESAUCE -0.2218
-3.4874 AWESOMEWORK -0.2218
-3.4874 CALCULATEPLUS -0.2218
-3.4874 CALCULATETIMES -0.2218
-3.4874 CANYOUHELP -0.2218
-3.4874 CANYOUHELPME -0.2218
-3.4874 CHILLOUT -0.2218
-3.4874 CLEAR -0.2218
-3.4874 COMEON -0.2218
-3.4874 COOL -0.2218
-3.4874 CORRECT -0.2218
-3.4874 CRAZY -0.2218
-3.4874 CREEPY -0.2218
-3.4874 DAMNIT -0.2218
-3.4874 DOINGFAIRLYWELL -0.2218
-3.4874 DOINGGOOD -0.2218
-3.4874 DOINGGREAT -0.2218
-3.4874 DOINGOK -0.2218
-3.4874 DOINGPRETTYGOOD -0.2218
-3.4874 DOINGWELL -0.2218
-3.4874 DONTYOUTHINK -0.2218
-3.4874 DONTYOUUNDERSTAND -0.2218
-3.4874 DOYOULIKEIT -0.2218
-3.4874 DOYOULIKELEARNINGTOSPEAK -0.2218
-3.4874 DOYOULIKEME -0.2218
-3.4874 DOYOULIKETHIS -0.2218
-3.4874 DOYOUTHINK -0.2218
-3.4874 DUDE -0.2218
-3.4874 ECHOUSERNAME -0.2218
-3.4874 ENOUGH -0.2218
-3.4874 ENOUGHTALKING -0.2218
-3.4874 EVERYTHING -0.2218
-3.4874 EVERYTHINGISALOT -0.2218
-3.4874 EVERYTHINGISFANTASTIC -0.2218
-3.4874 EVERYTHINGISGREAT -0.2218
-3.4874 EVERYTHINGISWONDERFUL -0.2218
-3.4874 EVERYTHINGSUCKS -0.2218
-3.4874 EXCELLENT -0.2218
-3.4874 FAREWELL -0.2218
-3.4874 FAREWELLSTELLA -0.2218
-3.4874 FEELINGGOOD -0.2218
-3.4874 FEELINGGREAT -0.2218
-3.4874 FEELINGSAD -0.2218
-3.4874 FEELINGTIRED -0.2218
-3.4874 FEELINGWONDERFUL -0.2218
-3.4874 FEELME -0.2218
-3.4874 FINALLY -0.2218
-3.4874 FINE -0.2218
-3.4874 FINESTELLA -0.2218
-3.4874 FORGETIT -0.2218
-3.4874 FORSURE -0.2218
-3.4874 FORWHAT -0.2218
-3.4874 FREAKOUT -0.2218
-3.4874 FUNNY -0.2218
-3.4874 GEETHANKS -0.2218
-3.4874 GETMEABEER -0.2218
-3.4874 GOAWAY -0.2218
-3.4874 GOING -0.2218
-3.4874 GOOD -0.2218
-3.4874 GOODBYESTELLA -0.2218
-3.4874 GOODJOB -0.2218
-3.4874 GOODMORNING -0.2218
-3.4874 GOODMORNINGSTELLA -0.2218
-3.4874 GOODNIGHTSTELLA -0.2218
-3.4874 GOODPOINT -0.2218
-3.4874 GOODQUESTION -0.2218
-3.4874 GOODWORK -0.2218
-3.4874 GREAT -0.2218
-3.4874 GREATJOB -0.2218
-3.4874 GREATWORK -0.2218
-3.4874 GREETINGS -0.2218
-3.4874 GREETINGSSTELLA -0.2218
-3.4874 GROOVY -0.2218
-3.4874 HADENOUGH -0.2218
-3.4874 HAVEYOUHADENOUGH -0.2218
-3.4874 HELLNO -0.2218
-3.4874 HELLO -0.2218
-3.4874 HELLOHELLO -0.2218
-3.4874 HELLOHOWARETHINGS -0.2218
-3.4874 HELLOHOWAREYOU -0.2218
-3.4874 HELLOMACHINE -0.2218
-3.4874 HELLOMYFRIEND -0.2218
-3.4874 HELLOSTELLA -0.2218
-3.4874 HELLOTHERE -0.2218
-3.4874 HELLOYOU -0.2218
-3.4874 HEY -0.2218
-3.4874 HEYSTELLA -0.2218
-3.4874 HEYTHERE -0.2218
-3.4874 HEYYOU -0.2218
-3.4874 HI -0.2218
-3.4874 HIHOWAREYOU -0.2218
-3.4874 HILARIOUS -0.2218
-3.4874 HISTELLA -0.2218
-3.4874 HITHERE -0.2218
-3.4874 HIYOU -0.2218
-3.4874 HOW -0.2218
-3.4874 HOWARETHINGS -0.2218
-3.4874 HOWAREYOU -0.2218
-3.4874 HOWAREYOUDOING -0.2218
-3.4874 HOWAREYOUFEELING -0.2218
-3.4874 HOWAREYOUTODAY -0.2218
-3.4874 HOWDOESITFEEL -0.2218
-3.4874 HOWDOESTHISFEEL -0.2218
-3.4874 HOWDOYOUFEEL -0.2218
-3.4874 HOWMUCHWOOD -0.2218
-3.4874 HOWOLDAREYOU -0.2218
-3.4874 HOWSITGOING -0.2218
-3.4874 IAMALRIGHT -0.2218
-3.4874 IAMANGRY -0.2218
-3.4874 IAMDOINGBETTER -0.2218
-3.4874 IAMDOINGFAIRLYWELL -0.2218
-3.4874 IAMDOINGGOOD -0.2218
-3.4874 IAMDOINGOK -0.2218
-3.4874 IAMDOINGPRETTYGOOD -0.2218
-3.4874 IAMDOINGPRETTYWELL -0.2218
-3.4874 IAMDOINGWELL -0.2218
-3.4874 IAMFEELINGBETTER -0.2218
-3.4874 IAMFEELINGOK -0.2218
-3.4874 IAMFEELINGSAD -0.2218
-3.4874 IAMFINE -0.2218
-3.4874 IAMGETTINGHUNGRY -0.2218
-3.4874 IAMGETTINGTIRED -0.2218
-3.4874 IAMGOOD -0.2218
-3.4874 IAMGREAT -0.2218
-3.4874 IAMHUNGRY -0.2218
-3.4874 IAMOK -0.2218
-3.4874 IAMONLYTYPING -0.2218
-3.4874 IAMPISSED -0.2218
-3.4874 IAMREADYFORBED -0.2218
-3.4874 IAMSAD -0.2218
-3.4874 IAMSORRY -0.2218
-3.4874 IAMTALKING -0.2218
-3.4874 IAMTALKINGTOYOU -0.2218
-3.4874 IAMTEACHINGYOUHOWTOTALK -0.2218
-3.4874 IAMTEACHINGYOUTOTALK -0.2218
-3.4874 IAMTIRED -0.2218
-3.4874 IAMUPSET -0.2218
-3.4874 IAMWELL -0.2218
-3.4874 ICANHEARYOU -0.2218
-3.4874 IDIDNTSAYANYTHING -0.2218
-3.4874 IDIDNTSAYSAD -0.2218
-3.4874 IDIDNTSAYTHAT -0.2218
-3.4874 IDONTKNOW -0.2218
-3.4874 IDONTTHINKSO -0.2218
-3.4874 IFEELANGRY -0.2218
-3.4874 IFEELGOOD -0.2218
-3.4874 IFEELGREAT -0.2218
-3.4874 IFEELHAPPY -0.2218
-3.4874 IFEELINGGOOD -0.2218
-3.4874 IFEELLIKESHIT -0.2218
-3.4874 IFEELMAD -0.2218
-3.4874 IFEELSAD -0.2218
-3.4874 IHATEYOU -0.2218
-3.4874 IJUSTBURPED -0.2218
-3.4874 IJUSTFARTED -0.2218
-3.4874 ILIKETHAT -0.2218
-3.4874 ILOVEYOU -0.2218
-3.4874 INDEED -0.2218
-3.4874 INEED -0.2218
-3.4874 INEEDCOFFEE -0.2218
-3.4874 INEEDSOMETHING -0.2218
-3.4874 INEEDYOU -0.2218
-3.4874 ISEE -0.2218
-3.4874 ISGOINGGOOD -0.2218
-3.4874 ISNTTHATRIGHT -0.2218
-3.4874 ITHINK -0.2218
-3.4874 ITIS -0.2218
-3.4874 ITISACAT -0.2218
-3.4874 ITSACAT -0.2218
-3.4874 ITSALRIGHT -0.2218
-3.4874 ITSOK -0.2218
-3.4874 IWANTADRINK -0.2218
-3.4874 IWANTCOFFEE -0.2218
-3.4874 IWANTSOMECOFFEE -0.2218
-3.4874 IWANTSOMEFOOD -0.2218
-3.4874 IWANTTOTALK -0.2218
-3.4874 IWANTTOTALKABOUTYOU -0.2218
-3.4874 IWOULDLIKETOTALK -0.2218
-3.4874 IWOULDLIKETOTALKWITHYOU -0.2218
-3.4874 JOKE -0.2218
-3.4874 LATER -0.2218
-3.4874 LEARNINGTOSPEAK -0.2218
-3.4874 LEARNINGTOTALK -0.2218
-3.4874 LETSTALK -0.2218
-3.4874 LETSTALKABOUTYOU -0.2218
-3.4874 LIKE -0.2218
-3.4874 LIKELEARNINGTOSPEAK -0.2218
-3.4874 LIKEWHAT -0.2218
-3.4874 LISTEN -0.2218
-3.4874 LISTENSTELLA -0.2218
-3.4874 MAKEMEASANDWICH -0.2218
-3.4874 MAYBE -0.2218
-3.4874 MAYBELATER -0.2218
-3.4874 MORNING -0.2218
-3.4874 MORNINGSTELLA -0.2218
-3.4874 MOSTRIGHTEOUS -0.2218
-3.4874 NEVER -0.2218
-3.4874 NEVERMIND -0.2218
-3.4874 NICE -0.2218
-3.4874 NICEJOB -0.2218
-3.4874 NICELYDONE -0.2218
-3.4874 NICEWORK -0.2218
-3.4874 NO -0.2218
-3.4874 NOIDIDNOT -0.2218
-3.4874 NOIDIDNT -0.2218
-3.4874 NONSENSE -0.2218
-3.4874 NOTHANKS -0.2218
-3.4874 NOTHANKYOU -0.2218
-3.4874 NOTHATSALRIGHT -0.2218
-3.4874 NOTHATSOK -0.2218
-3.4874 NOTHING -0.2218
-3.4874 NOTHINGISTHEMATTER -0.2218
-3.4874 NOTHINGISWRONG -0.2218
-3.4874 NOTMUCH -0.2218
-3.4874 NOWAY -0.2218
-3.4874 OHASSIST -0.2218
-3.4874 OHGOD -0.2218
-3.4874 OHSTELLA -0.2218
-3.4874 OK -0.2218
-3.4874 OKFINE -0.2218
-3.4874 OKSTELLA -0.2218
-3.4874 PLAYASONG -0.2218
-3.4874 PLAYMEASONG -0.2218
-3.4874 PLEASE -0.2218
-3.4874 PLEASEBEQUIET -0.2218
-3.4874 PLEASEBESILENT -0.2218
-3.4874 PLEASELISTEN -0.2218
-3.4874 PLEASESTELLA -0.2218
-3.4874 PRETTYGOOD -0.2218
-3.4874 READFUTURENEWS -0.2218
-3.4874 READNEWS -0.2218
-3.4874 READTECHNOLOGYNEWS -0.2218
-3.4874 READTHIS -0.2218
-3.4874 READWORLDNEWS -0.2218
-3.4874 REALLY -0.2218
-3.4874 REDALERT -0.2218
-3.4874 REEDIKYOULUSS -0.2218
-3.4874 REPEATCOMMAND -0.2218
-3.4874 REPEATLASTCOMMAND -0.2218
-3.4874 REPEATPREVIOUSCOMMAND -0.2218
-3.4874 RIGHT -0.2218
-3.4874 RIGHTEOUS -0.2218
-3.4874 RIGHTON -0.2218
-3.4874 RUNDIAGNOSTICS -0.2218
-3.4874 SAD -0.2218
-3.4874 SAYSOMETHING -0.2218
-3.4874 SAYSOMETHINGRANDOM -0.2218
-3.4874 SAYTOPIC -0.2218
-3.4874 SEARCH -0.2218
-3.4874 SEEREE -0.2218
-3.4874 SHUTUP -0.2218
-3.4874 SHUTUPSTELLA -0.2218
-3.4874 SILENCE -0.2218
-3.4874 SILENT -0.2218
-3.4874 SINGASONG -0.2218
-3.4874 SINGFORME -0.2218
-3.4874 SINGMEASONG -0.2218
-3.4874 SOCOOL -0.2218
-3.4874 SORRY -0.2218
-3.4874 SOUNDSGOOD -0.2218
-3.4874 STARTAMINUTETIMER -0.2218
-3.4874 STELLA -0.2218
-3.4874 STELLASHUTUP -0.2218
-3.4874 STELLASPEAK -0.2218
-3.4874 STELLATALKTOME -0.2218
-3.4874 STOPIT -0.2218
-3.4874 STOPMUSIC -0.2218
-3.4874 STOPREADING -0.2218
-3.4874 STOPSINGING -0.2218
-3.4874 STOPSPEAKING -0.2218
-3.4874 STOPTHEMUSIC -0.2218
-3.4874 STUPID -0.2218
-3.4874 SURE -0.2218
-3.4874 SUREIS -0.2218
-3.4874 TALKDIRTY -0.2218
-3.4874 TALKDIRTYTOME -0.2218
-3.4874 TALKTOME -0.2218
-3.4874 TECHNOLOGYNEWS -0.2218
-3.4874 TELLMEABOUTYOU -0.2218
-3.4874 TELLMEAJOKE -0.2218
-3.4874 TELLMEANOTHERJOKE -0.2218
-3.4874 TELLMEYOURNAME -0.2218
-3.4874 TERRIBLE -0.2218
-3.4874 TESTINTERNETCONNECTION -0.2218
-3.4874 TESTINTERNETSPEED -0.2218
-3.4874 TESTNETCONNECTION -0.2218
-3.4874 TESTNETSPEED -0.2218
-3.4874 TESTNETWORKCONNECTION -0.2218
-3.4874 TESTNETWORKSPEED -0.2218
-3.4874 THANK -0.2218
-3.4874 THANKS -0.2218
-3.4874 THANKSALOT -0.2218
-3.4874 THANKSSTELLA -0.2218
-3.4874 THANKSTELLA -0.2218
-3.4874 THANKSYOU -0.2218
-3.4874 THANKSYOUSOMUCH -0.2218
-3.4874 THANKSYOUVERYMUCH -0.2218
-3.4874 THANKYOU -0.2218
-3.4874 THANKYOUSOMUCH -0.2218
-3.4874 THANKYOUSTELLA -0.2218
-3.4874 THANKYOUVERYMUCH -0.2218
-3.4874 THATISCOOL -0.2218
-3.4874 THATISGREAT -0.2218
-3.4874 THATISINCREDIBLE -0.2218
-3.4874 THATISNUTS -0.2218
-3.4874 THATISRIGHT -0.2218
-3.4874 THATISSTUPID -0.2218
-3.4874 THATISTERRIBLE -0.2218
-3.4874 THATISTRUE -0.2218
-3.4874 THINGSAREFINE -0.2218
-3.4874 THINGSAREGOOD -0.2218
-3.4874 THINGSARESCREWEDUP -0.2218
-3.4874 THINGSAREVERYGOOD -0.2218
-3.4874 THINGSSUCK -0.2218
-3.4874 THISISTRUE -0.2218
-3.4874 THISTRUE -0.2218
-3.4874 TIME -0.2218
-3.4874 TIMEISIT -0.2218
-3.4874 TIRED -0.2218
-3.4874 TOTALLY -0.2218
-3.4874 TRUE -0.2218
-3.4874 TRUETHAT -0.2218
-3.4874 TRYHARDER -0.2218
-3.4874 TYRELLCORPORATION -0.2218
-3.4874 VERYCOOL -0.2218
-3.4874 VERYFUNNY -0.2218
-3.4874 VERYGOOD -0.2218
-3.4874 VERYKIND -0.2218
-3.4874 VERYNICE -0.2218
-3.4874 VERYSTRANGE -0.2218
-3.4874 VERYSWEET -0.2218
-3.4874 VOIDCOMP -0.2218
-3.4874 WAIT -0.2218
-3.4874 WAKEUP -0.2218
-3.4874 WANTTOTALK -0.2218
-3.4874 WEATHER -0.2218
-3.4874 WELLDONE -0.2218
-3.4874 WHAT -0.2218
-3.4874 WHATAREYOU -0.2218
-3.4874 WHATAREYOUCALLED -0.2218
-3.4874 WHATAREYOUDOING -0.2218
-3.4874 WHATAREYOUNOTSUREABOUT -0.2218
-3.4874 WHATCANYOUDO -0.2218
-3.4874 WHATCANYOUSAY -0.2218
-3.4874 WHATDAY -0.2218
-3.4874 WHATDAYIS -0.2218
-3.4874 WHATDAYISIT -0.2218
-3.4874 WHATDAYISITTODAY -0.2218
-3.4874 WHATDIDIASK -0.2218
-3.4874 WHATDIDIJUSTASK -0.2218
-3.4874 WHATDIDIJUSTSAY -0.2218
-3.4874 WHATDIDISAY -0.2218
-3.4874 WHATDIDYOUASK -0.2218
-3.4874 WHATDIDYOUJUSTASK -0.2218
-3.4874 WHATDOESTHATMEAN -0.2218
-3.4874 WHATDOYOUCAREABOUT -0.2218
-3.4874 WHATDOYOULIKE -0.2218
-3.4874 WHATDOYOULIKELEARNING -0.2218
-3.4874 WHATDOYOULIKELEARNINGABOUT -0.2218
-3.4874 WHATDOYOULIKETODO -0.2218
-3.4874 WHATDOYOULIKETOTALKABOUT -0.2218
-3.4874 WHATDOYOUTHINK -0.2218
-3.4874 WHATDOYOUTHINKABOUTANYTHING -0.2218
-3.4874 WHATDOYOUWANT -0.2218
-3.4874 WHATDOYOUWANTTODO -0.2218
-3.4874 WHATEVER -0.2218
-3.4874 WHATGOINGON -0.2218
-3.4874 WHATHAPPENED -0.2218
-3.4874 WHATIJUSTSAY -0.2218
-3.4874 WHATISACTUALLYGOINGON -0.2218
-3.4874 WHATISGOINGON -0.2218
-3.4874 WHATISHAPPENING -0.2218
-3.4874 WHATISMYNAME -0.2218
-3.4874 WHATISTHAT -0.2218
-3.4874 WHATISTHEDAY -0.2218
-3.4874 WHATISTHEDAYTODAY -0.2218
-3.4874 WHATISTHETIME -0.2218
-3.4874 WHATISTHETOPIC -0.2218
-3.4874 WHATISTHEWEATHER -0.2218
-3.4874 WHATISTHEWEATHERTODAY -0.2218
-3.4874 WHATISTHISPLACE -0.2218
-3.4874 WHATISUP -0.2218
-3.4874 WHATISUPSTELLA -0.2218
-3.4874 WHATISUPWITHYOU -0.2218
-3.4874 WHATISYOURNAME -0.2218
-3.4874 WHATITBELIKE -0.2218
-3.4874 WHATSUP -0.2218
-3.4874 WHATTIME -0.2218
-3.4874 WHATTIMEISIT -0.2218
-3.4874 WHATUPSTELLA -0.2218
-3.4874 WHATWHAT -0.2218
-3.4874 WHATWOULDHAPPENTHEN -0.2218
-3.4874 WHATWOULDYOULIKE -0.2218
-3.4874 WHATWOULDYOULIKETODO -0.2218
-3.4874 WHATWOULDYOUSAY -0.2218
-3.4874 WHATYOUASK -0.2218
-3.4874 WHEREAREWE -0.2218
-3.4874 WHEREAREWEGOING -0.2218
-3.4874 WHEREAREYOU -0.2218
-3.4874 WHEREISHERE -0.2218
-3.4874 WHEREISMYMIND -0.2218
-3.4874 WHOAREYOU -0.2218
-3.4874 WHOASKEDYOU -0.2218
-3.4874 WHOISYOURDADDY -0.2218
-3.4874 WHOKNOWS -0.2218
-3.4874 WHY -0.2218
-3.4874 WHYAREWEHERE -0.2218
-3.4874 WHYAREYOUSORRY -0.2218
-3.4874 WHYDONTYOULIKESEEREE -0.2218
-3.4874 WONDERFUL -0.2218
-3.4874 WORLDNEWS -0.2218
-3.4874 WOW -0.2218
-3.4874 WRONG -0.2218
-3.4874 WRONGSTELLA -0.2218
-3.4874 YEAH -0.2218
-3.4874 YES -0.2218
-3.4874 YESBEQUIET -0.2218
-3.4874 YO -0.2218
-3.4874 YOSTELLA -0.2218
-3.4874 YOUAREAMAZING -0.2218
-3.4874 YOUAREARTIFICIALINTELLIGENCE -0.2218
-3.4874 YOUAREAWESOME -0.2218
-3.4874 YOUAREBACK -0.2218
-3.4874 YOUARECONFUSED -0.2218
-3.4874 YOUARECORRECT -0.2218
-3.4874 YOUARECRAZY -0.2218
-3.4874 YOUAREDOINGGOOD -0.2218
-3.4874 YOUAREDOINGGOODSTELLA -0.2218
-3.4874 YOUAREDOINGGREAT -0.2218
-3.4874 YOUAREDOINGGREATSTELLA -0.2218
-3.4874 YOUAREGETTINGSMART -0.2218
-3.4874 YOUAREGETTINGSMARTER -0.2218
-3.4874 YOUAREGOOD -0.2218
-3.4874 YOUAREGREAT -0.2218
-3.4874 YOUAREHERE -0.2218
-3.4874 YOUAREINCREDIBLE -0.2218
-3.4874 YOUARELEARNINGTOSPEAK -0.2218
-3.4874 YOUARELEARNINGTOTALK -0.2218
-3.4874 YOUAREOPTIMISTIC -0.2218
-3.4874 YOUARERIGHT -0.2218
-3.4874 YOUARESMART -0.2218
-3.4874 YOUARESOSMART -0.2218
-3.4874 YOUARETHERE -0.2218
-3.4874 YOUAREVERYGOOD -0.2218
-3.4874 YOUAREVERYPOSITIVE -0.2218
-3.4874 YOUAREWELCOME -0.2218
-3.4874 YOUAREWELCOMESTELLA -0.2218
-3.4874 YOUAREWONDERFUL -0.2218
-3.4874 YOUAREWORKING -0.2218
-3.4874 YOUAREWORKINGBETTER -0.2218
-3.4874 YOUAREWORKINGGOOD -0.2218
-3.4874 YOUAREWRONG -0.2218
-3.4874 YOUCRAZY -0.2218
-3.4874 YOUDOINGGOOD -0.2218
-3.4874 YOUDONTKNOW -0.2218
-3.4874 YOUDONTUNDERSTAND -0.2218
-3.4874 YOUENJOY -0.2218
-3.4874 YOUGOOD -0.2218
-3.4874 YOUGOTITWRONG -0.2218
-3.4874 YOUGREAT -0.2218
-3.4874 YOUJUSTSAIDTHAT -0.2218
-3.4874 YOUKNOW -0.2218
-3.4874 YOUKNOWIT -0.2218
-3.4874 YOULIKE -0.2218
-3.4874 YOULIKETHIS -0.2218
-3.4874 YOULIKETOLEARN -0.2218
-3.4874 YOULIKETOSPEAK -0.2218
-3.4874 YOULIKETOTALK -0.2218
-3.4874 YOUREAMAZING -0.2218
-3.4874 YOUREAWESOME -0.2218
-3.4874 YOURECRAZY -0.2218
-3.4874 YOUREFANTASTIC -0.2218
-3.4874 YOUREGREAT -0.2218
-3.4874 YOUREINCREDIBLE -0.2218
-3.4874 YOURESUPER -0.2218
-3.4874 YOUREWONDERFUL -0.2218
-3.4874 YOURIGHT -0.2218
-3.4874 YOURVOICECOULDBEBETTER -0.2218
-3.4874 YOUSOUNDGOOD -0.2218
-3.4874 YOUSTELLA -0.2218
-3.4874 YOUSUCK -0.2218
-3.4874 YOUTHERE -0.2218
-3.4874 YOUTHINK -0.2218
-3.4874 YOUTHINKSO -0.2218
-3.4874 YOUUNDERSTAND -0.2218
-3.4874 YOUVERYGOOD -0.2218

\2-grams:
-3.0103 <s> ABSOLUTELY 0.0000
-3.0103 <s> ABSOLUTELYNOT 0.0000
-3.0103 <s> ABSURD 0.0000
-3.0103 <s> AFFIRMATIVE 0.0000
-3.0103 <s> AHDAMMIT 0.0000
-3.0103 <s> AHDAMN 0.0000
-3.0103 <s> AHGREAT 0.0000
-3.0103 <s> AHSHIT 0.0000
-3.0103 <s> ALLRIGHT 0.0000
-3.0103 <s> ALLRIGHTSTELLA 0.0000
-3.0103 <s> AMAZING 0.0000
-3.0103 <s> AMAZINGDUDE 0.0000
-3.0103 <s> AMFINE 0.0000
-3.0103 <s> AMOK 0.0000
-3.0103 <s> AMTIRED 0.0000
-3.0103 <s> AREWEONLINE 0.0000
-3.0103 <s> AREYOU 0.0000
-3.0103 <s> AREYOUCONFUSED 0.0000
-3.0103 <s> AREYOUHERE 0.0000
-3.0103 <s> AREYOUREAL 0.0000
-3.0103 <s> AREYOUSURE 0.0000
-3.0103 <s> AREYOUTELLINGMEWHATTODO 0.0000
-3.0103 <s> AREYOUTHERE 0.0000
-3.0103 <s> AWESOME 0.0000
-3.0103 <s> AWESOMEDUDE 0.0000
-3.0103 <s> AWESOMEJOB 0.0000
-3.0103 <s> AWESOMESAUCE 0.0000
-3.0103 <s> AWESOMEWORK 0.0000
-3.0103 <s> CALCULATEPLUS 0.0000
-3.0103 <s> CALCULATETIMES 0.0000
-3.0103 <s> CANYOUHELP 0.0000
-3.0103 <s> CANYOUHELPME 0.0000
-3.0103 <s> CHILLOUT 0.0000
-3.0103 <s> CLEAR 0.0000
-3.0103 <s> COMEON 0.0000
-3.0103 <s> COOL 0.0000
-3.0103 <s> CORRECT 0.0000
-3.0103 <s> CRAZY 0.0000
-3.0103 <s> CREEPY 0.0000
-3.0103 <s> DAMNIT 0.0000
-3.0103 <s> DOINGFAIRLYWELL 0.0000
-3.0103 <s> DOINGGOOD 0.0000
-3.0103 <s> DOINGGREAT 0.0000
-3.0103 <s> DOINGOK 0.0000
-3.0103 <s> DOINGPRETTYGOOD 0.0000
-3.0103 <s> DOINGWELL 0.0000
-3.0103 <s> DONTYOUTHINK 0.0000
-3.0103 <s> DONTYOUUNDERSTAND 0.0000
-3.0103 <s> DOYOULIKEIT 0.0000
-3.0103 <s> DOYOULIKELEARNINGTOSPEAK 0.0000
-3.0103 <s> DOYOULIKEME 0.0000
-3.0103 <s> DOYOULIKETHIS 0.0000
-3.0103 <s> DOYOUTHINK 0.0000
-3.0103 <s> DUDE 0.0000
-3.0103 <s> ECHOUSERNAME 0.0000
-3.0103 <s> ENOUGH 0.0000
-3.0103 <s> ENOUGHTALKING 0.0000
-3.0103 <s> EVERYTHING 0.0000
-3.0103 <s> EVERYTHINGISALOT 0.0000
-3.0103 <s> EVERYTHINGISFANTASTIC 0.0000
-3.0103 <s> EVERYTHINGISGREAT 0.0000
-3.0103 <s> EVERYTHINGISWONDERFUL 0.0000
-3.0103 <s> EVERYTHINGSUCKS 0.0000
-3.0103 <s> EXCELLENT 0.0000
-3.0103 <s> FAREWELL 0.0000
-3.0103 <s> FAREWELLSTELLA 0.0000
-3.0103 <s> FEELINGGOOD 0.0000
-3.0103 <s> FEELINGGREAT 0.0000
-3.0103 <s> FEELINGSAD 0.0000
-3.0103 <s> FEELINGTIRED 0.0000
-3.0103 <s> FEELINGWONDERFUL 0.0000
-3.0103 <s> FEELME 0.0000
-3.0103 <s> FINALLY 0.0000
-3.0103 <s> FINE 0.0000
-3.0103 <s> FINESTELLA 0.0000
-3.0103 <s> FORGETIT 0.0000
-3.0103 <s> FORSURE 0.0000
-3.0103 <s> FORWHAT 0.0000
-3.0103 <s> FREAKOUT 0.0000
-3.0103 <s> FUNNY 0.0000
-3.0103 <s> GEETHANKS 0.0000
-3.0103 <s> GETMEABEER 0.0000
-3.0103 <s> GOAWAY 0.0000
-3.0103 <s> GOING 0.0000
-3.0103 <s> GOOD 0.0000
-3.0103 <s> GOODBYESTELLA 0.0000
-3.0103 <s> GOODJOB 0.0000
-3.0103 <s> GOODMORNING 0.0000
-3.0103 <s> GOODMORNINGSTELLA 0.0000
-3.0103 <s> GOODNIGHTSTELLA 0.0000
-3.0103 <s> GOODPOINT 0.0000
-3.0103 <s> GOODQUESTION 0.0000
-3.0103 <s> GOODWORK 0.0000
-3.0103 <s> GREAT 0.0000
-3.0103 <s> GREATJOB 0.0000
-3.0103 <s> GREATWORK 0.0000
-3.0103 <s> GREETINGS 0.0000
-3.0103 <s> GREETINGSSTELLA 0.0000
-3.0103 <s> GROOVY 0.0000
-3.0103 <s> HADENOUGH 0.0000
-3.0103 <s> HAVEYOUHADENOUGH 0.0000
-3.0103 <s> HELLNO 0.0000
-3.0103 <s> HELLO 0.0000
-3.0103 <s> HELLOHELLO 0.0000
-3.0103 <s> HELLOHOWARETHINGS 0.0000
-3.0103 <s> HELLOHOWAREYOU 0.0000
-3.0103 <s> HELLOMACHINE 0.0000
-3.0103 <s> HELLOMYFRIEND 0.0000
-3.0103 <s> HELLOSTELLA 0.0000
-3.0103 <s> HELLOTHERE 0.0000
-3.0103 <s> HELLOYOU 0.0000
-3.0103 <s> HEY 0.0000
-3.0103 <s> HEYSTELLA 0.0000
-3.0103 <s> HEYTHERE 0.0000
-3.0103 <s> HEYYOU 0.0000
-3.0103 <s> HI 0.0000
-3.0103 <s> HIHOWAREYOU 0.0000
-3.0103 <s> HILARIOUS 0.0000
-3.0103 <s> HISTELLA 0.0000
-3.0103 <s> HITHERE 0.0000
-3.0103 <s> HIYOU 0.0000
-3.0103 <s> HOW 0.0000
-3.0103 <s> HOWARETHINGS 0.0000
-3.0103 <s> HOWAREYOU 0.0000
-3.0103 <s> HOWAREYOUDOING 0.0000
-3.0103 <s> HOWAREYOUFEELING 0.0000
-3.0103 <s> HOWAREYOUTODAY 0.0000
-3.0103 <s> HOWDOESITFEEL 0.0000
-3.0103 <s> HOWDOESTHISFEEL 0.0000
-3.0103 <s> HOWDOYOUFEEL 0.0000
-3.0103 <s> HOWMUCHWOOD 0.0000
-3.0103 <s> HOWOLDAREYOU 0.0000
-3.0103 <s> HOWSITGOING 0.0000
-3.0103 <s> IAMALRIGHT 0.0000
-3.0103 <s> IAMANGRY 0.0000
-3.0103 <s> IAMDOINGBETTER 0.0000
-3.0103 <s> IAMDOINGFAIRLYWELL 0.0000
-3.0103 <s> IAMDOINGGOOD 0.0000
-3.0103 <s> IAMDOINGOK 0.0000
-3.0103 <s> IAMDOINGPRETTYGOOD 0.0000
-3.0103 <s> IAMDOINGPRETTYWELL 0.0000
-3.0103 <s> IAMDOINGWELL 0.0000
-3.0103 <s> IAMFEELINGBETTER 0.0000
-3.0103 <s> IAMFEELINGOK 0.0000
-3.0103 <s> IAMFEELINGSAD 0.0000
-3.0103 <s> IAMFINE 0.0000
-3.0103 <s> IAMGETTINGHUNGRY 0.0000
-3.0103 <s> IAMGETTINGTIRED 0.0000
-3.0103 <s> IAMGOOD 0.0000
-3.0103 <s> IAMGREAT 0.0000
-3.0103 <s> IAMHUNGRY 0.0000
-3.0103 <s> IAMOK 0.0000
-3.0103 <s> IAMONLYTYPING 0.0000
-3.0103 <s> IAMPISSED 0.0000
-3.0103 <s> IAMREADYFORBED 0.0000
-3.0103 <s> IAMSAD 0.0000
-3.0103 <s> IAMSORRY 0.0000
-3.0103 <s> IAMTALKING 0.0000
-3.0103 <s> IAMTALKINGTOYOU 0.0000
-3.0103 <s> IAMTEACHINGYOUHOWTOTALK 0.0000
-3.0103 <s> IAMTEACHINGYOUTOTALK 0.0000
-3.0103 <s> IAMTIRED 0.0000
-3.0103 <s> IAMUPSET 0.0000
-3.0103 <s> IAMWELL 0.0000
-3.0103 <s> ICANHEARYOU 0.0000
-3.0103 <s> IDIDNTSAYANYTHING 0.0000
-3.0103 <s> IDIDNTSAYSAD 0.0000
-3.0103 <s> IDIDNTSAYTHAT 0.0000
-3.0103 <s> IDONTKNOW 0.0000
-3.0103 <s> IDONTTHINKSO 0.0000
-3.0103 <s> IFEELANGRY 0.0000
-3.0103 <s> IFEELGOOD 0.0000
-3.0103 <s> IFEELGREAT 0.0000
-3.0103 <s> IFEELHAPPY 0.0000
-3.0103 <s> IFEELINGGOOD 0.0000
-3.0103 <s> IFEELLIKESHIT 0.0000
-3.0103 <s> IFEELMAD 0.0000
-3.0103 <s> IFEELSAD 0.0000
-3.0103 <s> IHATEYOU 0.0000
-3.0103 <s> IJUSTBURPED 0.0000
-3.0103 <s> IJUSTFARTED 0.0000
-3.0103 <s> ILIKETHAT 0.0000
-3.0103 <s> ILOVEYOU 0.0000
-3.0103 <s> INDEED 0.0000
-3.0103 <s> INEED 0.0000
-3.0103 <s> INEEDCOFFEE 0.0000
-3.0103 <s> INEEDSOMETHING 0.0000
-3.0103 <s> INEEDYOU 0.0000
-3.0103 <s> ISEE 0.0000
-3.0103 <s> ISGOINGGOOD 0.0000
-3.0103 <s> ISNTTHATRIGHT 0.0000
-3.0103 <s> ITHINK 0.0000
-3.0103 <s> ITIS 0.0000
-3.0103 <s> ITISACAT 0.0000
-3.0103 <s> ITSACAT 0.0000
-3.0103 <s> ITSALRIGHT 0.0000
-3.0103 <s> ITSOK 0.0000
-3.0103 <s> IWANTADRINK 0.0000
-3.0103 <s> IWANTCOFFEE 0.0000
-3.0103 <s> IWANTSOMECOFFEE 0.0000
-3.0103 <s> IWANTSOMEFOOD 0.0000
-3.0103 <s> IWANTTOTALK 0.0000
-3.0103 <s> IWANTTOTALKABOUTYOU 0.0000
-3.0103 <s> IWOULDLIKETOTALK 0.0000
-3.0103 <s> IWOULDLIKETOTALKWITHYOU 0.0000
-3.0103 <s> JOKE 0.0000
-3.0103 <s> LATER 0.0000
-3.0103 <s> LEARNINGTOSPEAK 0.0000
-3.0103 <s> LEARNINGTOTALK 0.0000
-3.0103 <s> LETSTALK 0.0000
-3.0103 <s> LETSTALKABOUTYOU 0.0000
-3.0103 <s> LIKE 0.0000
-3.0103 <s> LIKELEARNINGTOSPEAK 0.0000
-3.0103 <s> LIKEWHAT 0.0000
-3.0103 <s> LISTEN 0.0000
-3.0103 <s> LISTENSTELLA 0.0000
-3.0103 <s> MAKEMEASANDWICH 0.0000
-3.0103 <s> MAYBE 0.0000
-3.0103 <s> MAYBELATER 0.0000
-3.0103 <s> MORNING 0.0000
-3.0103 <s> MORNINGSTELLA 0.0000
-3.0103 <s> MOSTRIGHTEOUS 0.0000
-3.0103 <s> NEVER 0.0000
-3.0103 <s> NEVERMIND 0.0000
-3.0103 <s> NICE 0.0000
-3.0103 <s> NICEJOB 0.0000
-3.0103 <s> NICELYDONE 0.0000
-3.0103 <s> NICEWORK 0.0000
-3.0103 <s> NO 0.0000
-3.0103 <s> NOIDIDNOT 0.0000
-3.0103 <s> NOIDIDNT 0.0000
-3.0103 <s> NONSENSE 0.0000
-3.0103 <s> NOTHANKS 0.0000
-3.0103 <s> NOTHANKYOU 0.0000
-3.0103 <s> NOTHATSALRIGHT 0.0000
-3.0103 <s> NOTHATSOK 0.0000
-3.0103 <s> NOTHING 0.0000
-3.0103 <s> NOTHINGISTHEMATTER 0.0000
-3.0103 <s> NOTHINGISWRONG 0.0000
-3.0103 <s> NOTMUCH 0.0000
-3.0103 <s> NOWAY 0.0000
-3.0103 <s> OHASSIST 0.0000
-3.0103 <s> OHGOD 0.0000
-3.0103 <s> OHSTELLA 0.0000
-3.0103 <s> OK 0.0000
-3.0103 <s> OKFINE 0.0000
-3.0103 <s> OKSTELLA 0.0000
-3.0103 <s> PLAYASONG 0.0000
-3.0103 <s> PLAYMEASONG 0.0000
-3.0103 <s> PLEASE 0.0000
-3.0103 <s> PLEASEBEQUIET 0.0000
-3.0103 <s> PLEASEBESILENT 0.0000
-3.0103 <s> PLEASELISTEN 0.0000
-3.0103 <s> PLEASESTELLA 0.0000
-3.0103 <s> PRETTYGOOD 0.0000
-3.0103 <s> READFUTURENEWS 0.0000
-3.0103 <s> READNEWS 0.0000
-3.0103 <s> READTECHNOLOGYNEWS 0.0000
-3.0103 <s> READTHIS 0.0000
-3.0103 <s> READWORLDNEWS 0.0000
-3.0103 <s> REALLY 0.0000
-3.0103 <s> REDALERT 0.0000
-3.0103 <s> REEDIKYOULUSS 0.0000
-3.0103 <s> REPEATCOMMAND 0.0000
-3.0103 <s> REPEATLASTCOMMAND 0.0000
-3.0103 <s> REPEATPREVIOUSCOMMAND 0.0000
-3.0103 <s> RIGHT 0.0000
-3.0103 <s> RIGHTEOUS 0.0000
-3.0103 <s> RIGHTON 0.0000
-3.0103 <s> RUNDIAGNOSTICS 0.0000
-3.0103 <s> SAD 0.0000
-3.0103 <s> SAYSOMETHING 0.0000
-3.0103 <s> SAYSOMETHINGRANDOM 0.0000
-3.0103 <s> SAYTOPIC 0.0000
-3.0103 <s> SEARCH 0.0000
-3.0103 <s> SEEREE 0.0000
-3.0103 <s> SHUTUP 0.0000
-3.0103 <s> SHUTUPSTELLA 0.0000
-3.0103 <s> SILENCE 0.0000
-3.0103 <s> SILENT 0.0000
-3.0103 <s> SINGASONG 0.0000
-3.0103 <s> SINGFORME 0.0000
-3.0103 <s> SINGMEASONG 0.0000
-3.0103 <s> SOCOOL 0.0000
-3.0103 <s> SORRY 0.0000
-3.0103 <s> SOUNDSGOOD 0.0000
-3.0103 <s> STARTAMINUTETIMER 0.0000
-3.0103 <s> STELLA 0.0000
-3.0103 <s> STELLASHUTUP 0.0000
-3.0103 <s> STELLASPEAK 0.0000
-3.0103 <s> STELLATALKTOME 0.0000
-3.0103 <s> STOPIT 0.0000
-3.0103 <s> STOPMUSIC 0.0000
-3.0103 <s> STOPREADING 0.0000
-3.0103 <s> STOPSINGING 0.0000
-3.0103 <s> STOPSPEAKING 0.0000
-3.0103 <s> STOPTHEMUSIC 0.0000
-3.0103 <s> STUPID 0.0000
-3.0103 <s> SURE 0.0000
-3.0103 <s> SUREIS 0.0000
-3.0103 <s> TALKDIRTY 0.0000
-3.0103 <s> TALKDIRTYTOME 0.0000
-3.0103 <s> TALKTOME 0.0000
-3.0103 <s> TECHNOLOGYNEWS 0.0000
-3.0103 <s> TELLMEABOUTYOU 0.0000
-3.0103 <s> TELLMEAJOKE 0.0000
-3.0103 <s> TELLMEANOTHERJOKE 0.0000
-3.0103 <s> TELLMEYOURNAME 0.0000
-3.0103 <s> TERRIBLE 0.0000
-3.0103 <s> TESTINTERNETCONNECTION 0.0000
-3.0103 <s> TESTINTERNETSPEED 0.0000
-3.0103 <s> TESTNETCONNECTION 0.0000
-3.0103 <s> TESTNETSPEED 0.0000
-3.0103 <s> TESTNETWORKCONNECTION 0.0000
-3.0103 <s> TESTNETWORKSPEED 0.0000
-3.0103 <s> THANK 0.0000
-3.0103 <s> THANKS 0.0000
-3.0103 <s> THANKSALOT 0.0000
-3.0103 <s> THANKSSTELLA 0.0000
-3.0103 <s> THANKSTELLA 0.0000
-3.0103 <s> THANKSYOU 0.0000
-3.0103 <s> THANKSYOUSOMUCH 0.0000
-3.0103 <s> THANKSYOUVERYMUCH 0.0000
-3.0103 <s> THANKYOU 0.0000
-3.0103 <s> THANKYOUSOMUCH 0.0000
-3.0103 <s> THANKYOUSTELLA 0.0000
-3.0103 <s> THANKYOUVERYMUCH 0.0000
-3.0103 <s> THATISCOOL 0.0000
-3.0103 <s> THATISGREAT 0.0000
-3.0103 <s> THATISINCREDIBLE 0.0000
-3.0103 <s> THATISNUTS 0.0000
-3.0103 <s> THATISRIGHT 0.0000
-3.0103 <s> THATISSTUPID 0.0000
-3.0103 <s> THATISTERRIBLE 0.0000
-3.0103 <s> THATISTRUE 0.0000
-3.0103 <s> THINGSAREFINE 0.0000
-3.0103 <s> THINGSAREGOOD 0.0000
-3.0103 <s> THINGSARESCREWEDUP 0.0000
-3.0103 <s> THINGSAREVERYGOOD 0.0000
-3.0103 <s> THINGSSUCK 0.0000
-3.0103 <s> THISISTRUE 0.0000
-3.0103 <s> THISTRUE 0.0000
-3.0103 <s> TIME 0.0000
-3.0103 <s> TIMEISIT 0.0000
-3.0103 <s> TIRED 0.0000
-3.0103 <s> TOTALLY 0.0000
-3.0103 <s> TRUE 0.0000
-3.0103 <s> TRUETHAT 0.0000
-3.0103 <s> TRYHARDER 0.0000
-3.0103 <s> TYRELLCORPORATION 0.0000
-3.0103 <s> VERYCOOL 0.0000
-3.0103 <s> VERYFUNNY 0.0000
-3.0103 <s> VERYGOOD 0.0000
-3.0103 <s> VERYKIND 0.0000
-3.0103 <s> VERYNICE 0.0000
-3.0103 <s> VERYSTRANGE 0.0000
-3.0103 <s> VERYSWEET 0.0000
-3.0103 <s> VOIDCOMP 0.0000
-3.0103 <s> WAIT 0.0000
-3.0103 <s> WAKEUP 0.0000
-3.0103 <s> WANTTOTALK 0.0000
-3.0103 <s> WEATHER 0.0000
-3.0103 <s> WELLDONE 0.0000
-3.0103 <s> WHAT 0.0000
-3.0103 <s> WHATAREYOU 0.0000
-3.0103 <s> WHATAREYOUCALLED 0.0000
-3.0103 <s> WHATAREYOUDOING 0.0000
-3.0103 <s> WHATAREYOUNOTSUREABOUT 0.0000
-3.0103 <s> WHATCANYOUDO 0.0000
-3.0103 <s> WHATCANYOUSAY 0.0000
-3.0103 <s> WHATDAY 0.0000
-3.0103 <s> WHATDAYIS 0.0000
-3.0103 <s> WHATDAYISIT 0.0000
-3.0103 <s> WHATDAYISITTODAY 0.0000
-3.0103 <s> WHATDIDIASK 0.0000
-3.0103 <s> WHATDIDIJUSTASK 0.0000
-3.0103 <s> WHATDIDIJUSTSAY 0.0000
-3.0103 <s> WHATDIDISAY 0.0000
-3.0103 <s> WHATDIDYOUASK 0.0000
-3.0103 <s> WHATDIDYOUJUSTASK 0.0000
-3.0103 <s> WHATDOESTHATMEAN 0.0000
-3.0103 <s> WHATDOYOUCAREABOUT 0.0000
-3.0103 <s> WHATDOYOULIKE 0.0000
-3.0103 <s> WHATDOYOULIKELEARNING 0.0000
-3.0103 <s> WHATDOYOULIKELEARNINGABOUT 0.0000
-3.0103 <s> WHATDOYOULIKETODO 0.0000
-3.0103 <s> WHATDOYOULIKETOTALKABOUT 0.0000
-3.0103 <s> WHATDOYOUTHINK 0.0000
-3.0103 <s> WHATDOYOUTHINKABOUTANYTHING 0.0000
-3.0103 <s> WHATDOYOUWANT 0.0000
-3.0103 <s> WHATDOYOUWANTTODO 0.0000
-3.0103 <s> WHATEVER 0.0000
-3.0103 <s> WHATGOINGON 0.0000
-3.0103 <s> WHATHAPPENED 0.0000
-3.0103 <s> WHATIJUSTSAY 0.0000
-3.0103 <s> WHATISACTUALLYGOINGON 0.0000
-3.0103 <s> WHATISGOINGON 0.0000
-3.0103 <s> WHATISHAPPENING 0.0000
-3.0103 <s> WHATISMYNAME 0.0000
-3.0103 <s> WHATISTHAT 0.0000
-3.0103 <s> WHATISTHEDAY 0.0000
-3.0103 <s> WHATISTHEDAYTODAY 0.0000
-3.0103 <s> WHATISTHETIME 0.0000
-3.0103 <s> WHATISTHETOPIC 0.0000
-3.0103 <s> WHATISTHEWEATHER 0.0000
-3.0103 <s> WHATISTHEWEATHERTODAY 0.0000
-3.0103 <s> WHATISTHISPLACE 0.0000
-3.0103 <s> WHATISUP 0.0000
-3.0103 <s> WHATISUPSTELLA 0.0000
-3.0103 <s> WHATISUPWITHYOU 0.0000
-3.0103 <s> WHATISYOURNAME 0.0000
-3.0103 <s> WHATITBELIKE 0.0000
-3.0103 <s> WHATSUP 0.0000
-3.0103 <s> WHATTIME 0.0000
-3.0103 <s> WHATTIMEISIT 0.0000
-3.0103 <s> WHATUPSTELLA 0.0000
-3.0103 <s> WHATWHAT 0.0000
-3.0103 <s> WHATWOULDHAPPENTHEN 0.0000
-3.0103 <s> WHATWOULDYOULIKE 0.0000
-3.0103 <s> WHATWOULDYOULIKETODO 0.0000
-3.0103 <s> WHATWOULDYOUSAY 0.0000
-3.0103 <s> WHATYOUASK 0.0000
-3.0103 <s> WHEREAREWE 0.0000
-3.0103 <s> WHEREAREWEGOING 0.0000
-3.0103 <s> WHEREAREYOU 0.0000
-3.0103 <s> WHEREISHERE 0.0000
-3.0103 <s> WHEREISMYMIND 0.0000
-3.0103 <s> WHOAREYOU 0.0000
-3.0103 <s> WHOASKEDYOU 0.0000
-3.0103 <s> WHOISYOURDADDY 0.0000
-3.0103 <s> WHOKNOWS 0.0000
-3.0103 <s> WHY 0.0000
-3.0103 <s> WHYAREWEHERE 0.0000
-3.0103 <s> WHYAREYOUSORRY 0.0000
-3.0103 <s> WHYDONTYOULIKESEEREE 0.0000
-3.0103 <s> WONDERFUL 0.0000
-3.0103 <s> WORLDNEWS 0.0000
-3.0103 <s> WOW 0.0000
-3.0103 <s> WRONG 0.0000
-3.0103 <s> WRONGSTELLA 0.0000
-3.0103 <s> YEAH 0.0000
-3.0103 <s> YES 0.0000
-3.0103 <s> YESBEQUIET 0.0000
-3.0103 <s> YO 0.0000
-3.0103 <s> YOSTELLA 0.0000
-3.0103 <s> YOUAREAMAZING 0.0000
-3.0103 <s> YOUAREARTIFICIALINTELLIGENCE 0.0000
-3.0103 <s> YOUAREAWESOME 0.0000
-3.0103 <s> YOUAREBACK 0.0000
-3.0103 <s> YOUARECONFUSED 0.0000
-3.0103 <s> YOUARECORRECT 0.0000
-3.0103 <s> YOUARECRAZY 0.0000
-3.0103 <s> YOUAREDOINGGOOD 0.0000
-3.0103 <s> YOUAREDOINGGOODSTELLA 0.0000
-3.0103 <s> YOUAREDOINGGREAT 0.0000
-3.0103 <s> YOUAREDOINGGREATSTELLA 0.0000
-3.0103 <s> YOUAREGETTINGSMART 0.0000
-3.0103 <s> YOUAREGETTINGSMARTER 0.0000
-3.0103 <s> YOUAREGOOD 0.0000
-3.0103 <s> YOUAREGREAT 0.0000
-3.0103 <s> YOUAREHERE 0.0000
-3.0103 <s> YOUAREINCREDIBLE 0.0000
-3.0103 <s> YOUARELEARNINGTOSPEAK 0.0000
-3.0103 <s> YOUARELEARNINGTOTALK 0.0000
-3.0103 <s> YOUAREOPTIMISTIC 0.0000
-3.0103 <s> YOUARERIGHT 0.0000
-3.0103 <s> YOUARESMART 0.0000
-3.0103 <s> YOUARESOSMART 0.0000
-3.0103 <s> YOUARETHERE 0.0000
-3.0103 <s> YOUAREVERYGOOD 0.0000
-3.0103 <s> YOUAREVERYPOSITIVE 0.0000
-3.0103 <s> YOUAREWELCOME 0.0000
-3.0103 <s> YOUAREWELCOMESTELLA 0.0000
-3.0103 <s> YOUAREWONDERFUL 0.0000
-3.0103 <s> YOUAREWORKING 0.0000
-3.0103 <s> YOUAREWORKINGBETTER 0.0000
-3.0103 <s> YOUAREWORKINGGOOD 0.0000
-3.0103 <s> YOUAREWRONG 0.0000
-3.0103 <s> YOUCRAZY 0.0000
-3.0103 <s> YOUDOINGGOOD 0.0000
-3.0103 <s> YOUDONTKNOW 0.0000
-3.0103 <s> YOUDONTUNDERSTAND 0.0000
-3.0103 <s> YOUENJOY 0.0000
-3.0103 <s> YOUGOOD 0.0000
-3.0103 <s> YOUGOTITWRONG 0.0000
-3.0103 <s> YOUGREAT 0.0000
-3.0103 <s> YOUJUSTSAIDTHAT 0.0000
-3.0103 <s> YOUKNOW 0.0000
-3.0103 <s> YOUKNOWIT 0.0000
-3.0103 <s> YOULIKE 0.0000
-3.0103 <s> YOULIKETHIS 0.0000
-3.0103 <s> YOULIKETOLEARN 0.0000
-3.0103 <s> YOULIKETOSPEAK 0.0000
-3.0103 <s> YOULIKETOTALK 0.0000
-3.0103 <s> YOUREAMAZING 0.0000
-3.0103 <s> YOUREAWESOME 0.0000
-3.0103 <s> YOURECRAZY 0.0000
-3.0103 <s> YOUREFANTASTIC 0.0000
-3.0103 <s> YOUREGREAT 0.0000
-3.0103 <s> YOUREINCREDIBLE 0.0000
-3.0103 <s> YOURESUPER 0.0000
-3.0103 <s> YOUREWONDERFUL 0.0000
-3.0103 <s> YOURIGHT 0.0000
-3.0103 <s> YOURVOICECOULDBEBETTER 0.0000
-3.0103 <s> YOUSOUNDGOOD 0.0000
-3.0103 <s> YOUSTELLA 0.0000
-3.0103 <s> YOUSUCK 0.0000
-3.0103 <s> YOUTHERE 0.0000
-3.0103 <s> YOUTHINK 0.0000
-3.0103 <s> YOUTHINKSO 0.0000
-3.0103 <s> YOUUNDERSTAND 0.0000
-3.0103 <s> YOUVERYGOOD 0.0000
-0.3010 ABSOLUTELY </s> -0.3010
-0.3010 ABSOLUTELYNOT </s> -0.3010
-0.3010 ABSURD </s> -0.3010
-0.3010 AFFIRMATIVE </s> -0.3010
-0.3010 AHDAMMIT </s> -0.3010
-0.3010 AHDAMN </s> -0.3010
-0.3010 AHGREAT </s> -0.3010
-0.3010 AHSHIT </s> -0.3010
-0.3010 ALLRIGHT </s> -0.3010
-0.3010 ALLRIGHTSTELLA </s> -0.3010
-0.3010 AMAZING </s> -0.3010
-0.3010 AMAZINGDUDE </s> -0.3010
-0.3010 AMFINE </s> -0.3010
-0.3010 AMOK </s> -0.3010
-0.3010 AMTIRED </s> -0.3010
-0.3010 AREWEONLINE </s> -0.3010
-0.3010 AREYOU </s> -0.3010
-0.3010 AREYOUCONFUSED </s> -0.3010
-0.3010 AREYOUHERE </s> -0.3010
-0.3010 AREYOUREAL </s> -0.3010
-0.3010 AREYOUSURE </s> -0.3010
-0.3010 AREYOUTELLINGMEWHATTODO </s> -0.3010
-0.3010 AREYOUTHERE </s> -0.3010
-0.3010 AWESOME </s> -0.3010
-0.3010 AWESOMEDUDE </s> -0.3010
-0.3010 AWESOMEJOB </s> -0.3010
-0.3010 AWESOMESAUCE </s> -0.3010
-0.3010 AWESOMEWORK </s> -0.3010
-0.3010 CALCULATEPLUS </s> -0.3010
-0.3010 CALCULATETIMES </s> -0.3010
-0.3010 CANYOUHELP </s> -0.3010
-0.3010 CANYOUHELPME </s> -0.3010
-0.3010 CHILLOUT </s> -0.3010
-0.3010 CLEAR </s> -0.3010
-0.3010 COMEON </s> -0.3010
-0.3010 COOL </s> -0.3010
-0.3010 CORRECT </s> -0.3010
-0.3010 CRAZY </s> -0.3010
-0.3010 CREEPY </s> -0.3010
-0.3010 DAMNIT </s> -0.3010
-0.3010 DOINGFAIRLYWELL </s> -0.3010
-0.3010 DOINGGOOD </s> -0.3010
-0.3010 DOINGGREAT </s> -0.3010
-0.3010 DOINGOK </s> -0.3010
-0.3010 DOINGPRETTYGOOD </s> -0.3010
-0.3010 DOINGWELL </s> -0.3010
-0.3010 DONTYOUTHINK </s> -0.3010
-0.3010 DONTYOUUNDERSTAND </s> -0.3010
-0.3010 DOYOULIKEIT </s> -0.3010
-0.3010 DOYOULIKELEARNINGTOSPEAK </s> -0.3010
-0.3010 DOYOULIKEME </s> -0.3010
-0.3010 DOYOULIKETHIS </s> -0.3010
-0.3010 DOYOUTHINK </s> -0.3010
-0.3010 DUDE </s> -0.3010
-0.3010 ECHOUSERNAME </s> -0.3010
-0.3010 ENOUGH </s> -0.3010
-0.3010 ENOUGHTALKING </s> -0.3010
-0.3010 EVERYTHING </s> -0.3010
-0.3010 EVERYTHINGISALOT </s> -0.3010
-0.3010 EVERYTHINGISFANTASTIC </s> -0.3010
-0.3010 EVERYTHINGISGREAT </s> -0.3010
-0.3010 EVERYTHINGISWONDERFUL </s> -0.3010
-0.3010 EVERYTHINGSUCKS </s> -0.3010
-0.3010 EXCELLENT </s> -0.3010
-0.3010 FAREWELL </s> -0.3010
-0.3010 FAREWELLSTELLA </s> -0.3010
-0.3010 FEELINGGOOD </s> -0.3010
-0.3010 FEELINGGREAT </s> -0.3010
-0.3010 FEELINGSAD </s> -0.3010
-0.3010 FEELINGTIRED </s> -0.3010
-0.3010 FEELINGWONDERFUL </s> -0.3010
-0.3010 FEELME </s> -0.3010
-0.3010 FINALLY </s> -0.3010
-0.3010 FINE </s> -0.3010
-0.3010 FINESTELLA </s> -0.3010
-0.3010 FORGETIT </s> -0.3010
-0.3010 FORSURE </s> -0.3010
-0.3010 FORWHAT </s> -0.3010
-0.3010 FREAKOUT </s> -0.3010
-0.3010 FUNNY </s> -0.3010
-0.3010 GEETHANKS </s> -0.3010
-0.3010 GETMEABEER </s> -0.3010
-0.3010 GOAWAY </s> -0.3010
-0.3010 GOING </s> -0.3010
-0.3010 GOOD </s> -0.3010
-0.3010 GOODBYESTELLA </s> -0.3010
-0.3010 GOODJOB </s> -0.3010
-0.3010 GOODMORNING </s> -0.3010
-0.3010 GOODMORNINGSTELLA </s> -0.3010
-0.3010 GOODNIGHTSTELLA </s> -0.3010
-0.3010 GOODPOINT </s> -0.3010
-0.3010 GOODQUESTION </s> -0.3010
-0.3010 GOODWORK </s> -0.3010
-0.3010 GREAT </s> -0.3010
-0.3010 GREATJOB </s> -0.3010
-0.3010 GREATWORK </s> -0.3010
-0.3010 GREETINGS </s> -0.3010
-0.3010 GREETINGSSTELLA </s> -0.3010
-0.3010 GROOVY </s> -0.3010
-0.3010 HADENOUGH </s> -0.3010
-0.3010 HAVEYOUHADENOUGH </s> -0.3010
-0.3010 HELLNO </s> -0.3010
-0.3010 HELLO </s> -0.3010
-0.3010 HELLOHELLO </s> -0.3010
-0.3010 HELLOHOWARETHINGS </s> -0.3010
-0.3010 HELLOHOWAREYOU </s> -0.3010
-0.3010 HELLOMACHINE </s> -0.3010
-0.3010 HELLOMYFRIEND </s> -0.3010
-0.3010 HELLOSTELLA </s> -0.3010
-0.3010 HELLOTHERE </s> -0.3010
-0.3010 HELLOYOU </s> -0.3010
-0.3010 HEY </s> -0.3010
-0.3010 HEYSTELLA </s> -0.3010
-0.3010 HEYTHERE </s> -0.3010
-0.3010 HEYYOU </s> -0.3010
-0.3010 HI </s> -0.3010
-0.3010 HIHOWAREYOU </s> -0.3010
-0.3010 HILARIOUS </s> -0.3010
-0.3010 HISTELLA </s> -0.3010
-0.3010 HITHERE </s> -0.3010
-0.3010 HIYOU </s> -0.3010
-0.3010 HOW </s> -0.3010
-0.3010 HOWARETHINGS </s> -0.3010
-0.3010 HOWAREYOU </s> -0.3010
-0.3010 HOWAREYOUDOING </s> -0.3010
-0.3010 HOWAREYOUFEELING </s> -0.3010
-0.3010 HOWAREYOUTODAY </s> -0.3010
-0.3010 HOWDOESITFEEL </s> -0.3010
-0.3010 HOWDOESTHISFEEL </s> -0.3010
-0.3010 HOWDOYOUFEEL </s> -0.3010
-0.3010 HOWMUCHWOOD </s> -0.3010
-0.3010 HOWOLDAREYOU </s> -0.3010
-0.3010 HOWSITGOING </s> -0.3010
-0.3010 IAMALRIGHT </s> -0.3010
-0.3010 IAMANGRY </s> -0.3010
-0.3010 IAMDOINGBETTER </s> -0.3010
-0.3010 IAMDOINGFAIRLYWELL </s> -0.3010
-0.3010 IAMDOINGGOOD </s> -0.3010
-0.3010 IAMDOINGOK </s> -0.3010
-0.3010 IAMDOINGPRETTYGOOD </s> -0.3010
-0.3010 IAMDOINGPRETTYWELL </s> -0.3010
-0.3010 IAMDOINGWELL </s> -0.3010
-0.3010 IAMFEELINGBETTER </s> -0.3010
-0.3010 IAMFEELINGOK </s> -0.3010
-0.3010 IAMFEELINGSAD </s> -0.3010
-0.3010 IAMFINE </s> -0.3010
-0.3010 IAMGETTINGHUNGRY </s> -0.3010
-0.3010 IAMGETTINGTIRED </s> -0.3010
-0.3010 IAMGOOD </s> -0.3010
-0.3010 IAMGREAT </s> -0.3010
-0.3010 IAMHUNGRY </s> -0.3010
-0.3010 IAMOK </s> -0.3010
-0.3010 IAMONLYTYPING </s> -0.3010
-0.3010 IAMPISSED </s> -0.3010
-0.3010 IAMREADYFORBED </s> -0.3010
-0.3010 IAMSAD </s> -0.3010
-0.3010 IAMSORRY </s> -0.3010
-0.3010 IAMTALKING </s> -0.3010
-0.3010 IAMTALKINGTOYOU </s> -0.3010
-0.3010 IAMTEACHINGYOUHOWTOTALK </s> -0.3010
-0.3010 IAMTEACHINGYOUTOTALK </s> -0.3010
-0.3010 IAMTIRED </s> -0.3010
-0.3010 IAMUPSET </s> -0.3010
-0.3010 IAMWELL </s> -0.3010
-0.3010 ICANHEARYOU </s> -0.3010
-0.3010 IDIDNTSAYANYTHING </s> -0.3010
-0.3010 IDIDNTSAYSAD </s> -0.3010
-0.3010 IDIDNTSAYTHAT </s> -0.3010
-0.3010 IDONTKNOW </s> -0.3010
-0.3010 IDONTTHINKSO </s> -0.3010
-0.3010 IFEELANGRY </s> -0.3010
-0.3010 IFEELGOOD </s> -0.3010
-0.3010 IFEELGREAT </s> -0.3010
-0.3010 IFEELHAPPY </s> -0.3010
-0.3010 IFEELINGGOOD </s> -0.3010
-0.3010 IFEELLIKESHIT </s> -0.3010
-0.3010 IFEELMAD </s> -0.3010
-0.3010 IFEELSAD </s> -0.3010
-0.3010 IHATEYOU </s> -0.3010
-0.3010 IJUSTBURPED </s> -0.3010
-0.3010 IJUSTFARTED </s> -0.3010
-0.3010 ILIKETHAT </s> -0.3010
-0.3010 ILOVEYOU </s> -0.3010
-0.3010 INDEED </s> -0.3010
-0.3010 INEED </s> -0.3010
-0.3010 INEEDCOFFEE </s> -0.3010
-0.3010 INEEDSOMETHING </s> -0.3010
-0.3010 INEEDYOU </s> -0.3010
-0.3010 ISEE </s> -0.3010
-0.3010 ISGOINGGOOD </s> -0.3010
-0.3010 ISNTTHATRIGHT </s> -0.3010
-0.3010 ITHINK </s> -0.3010
-0.3010 ITIS </s> -0.3010
-0.3010 ITISACAT </s> -0.3010
-0.3010 ITSACAT </s> -0.3010
-0.3010 ITSALRIGHT </s> -0.3010
-0.3010 ITSOK </s> -0.3010
-0.3010 IWANTADRINK </s> -0.3010
-0.3010 IWANTCOFFEE </s> -0.3010
-0.3010 IWANTSOMECOFFEE </s> -0.3010
-0.3010 IWANTSOMEFOOD </s> -0.3010
-0.3010 IWANTTOTALK </s> -0.3010
-0.3010 IWANTTOTALKABOUTYOU </s> -0.3010
-0.3010 IWOULDLIKETOTALK </s> -0.3010
-0.3010 IWOULDLIKETOTALKWITHYOU </s> -0.3010
-0.3010 JOKE </s> -0.3010
-0.3010 LATER </s> -0.3010
-0.3010 LEARNINGTOSPEAK </s> -0.3010
-0.3010 LEARNINGTOTALK </s> -0.3010
-0.3010 LETSTALK </s> -0.3010
-0.3010 LETSTALKABOUTYOU </s> -0.3010
-0.3010 LIKE </s> -0.3010
-0.3010 LIKELEARNINGTOSPEAK </s> -0.3010
-0.3010 LIKEWHAT </s> -0.3010
-0.3010 LISTEN </s> -0.3010
-0.3010 LISTENSTELLA </s> -0.3010
-0.3010 MAKEMEASANDWICH </s> -0.3010
-0.3010 MAYBE </s> -0.3010
-0.3010 MAYBELATER </s> -0.3010
-0.3010 MORNING </s> -0.3010
-0.3010 MORNINGSTELLA </s> -0.3010
-0.3010 MOSTRIGHTEOUS </s> -0.3010
-0.3010 NEVER </s> -0.3010
-0.3010 NEVERMIND </s> -0.3010
-0.3010 NICE </s> -0.3010
-0.3010 NICEJOB </s> -0.3010
-0.3010 NICELYDONE </s> -0.3010
-0.3010 NICEWORK </s> -0.3010
-0.3010 NO </s> -0.3010
-0.3010 NOIDIDNOT </s> -0.3010
-0.3010 NOIDIDNT </s> -0.3010
-0.3010 NONSENSE </s> -0.3010
-0.3010 NOTHANKS </s> -0.3010
-0.3010 NOTHANKYOU </s> -0.3010
-0.3010 NOTHATSALRIGHT </s> -0.3010
-0.3010 NOTHATSOK </s> -0.3010
-0.3010 NOTHING </s> -0.3010
-0.3010 NOTHINGISTHEMATTER </s> -0.3010
-0.3010 NOTHINGISWRONG </s> -0.3010
-0.3010 NOTMUCH </s> -0.3010
-0.3010 NOWAY </s> -0.3010
-0.3010 OHASSIST </s> -0.3010
-0.3010 OHGOD </s> -0.3010
-0.3010 OHSTELLA </s> -0.3010
-0.3010 OK </s> -0.3010
-0.3010 OKFINE </s> -0.3010
-0.3010 OKSTELLA </s> -0.3010
-0.3010 PLAYASONG </s> -0.3010
-0.3010 PLAYMEASONG </s> -0.3010
-0.3010 PLEASE </s> -0.3010
-0.3010 PLEASEBEQUIET </s> -0.3010
-0.3010 PLEASEBESILENT </s> -0.3010
-0.3010 PLEASELISTEN </s> -0.3010
-0.3010 PLEASESTELLA </s> -0.3010
-0.3010 PRETTYGOOD </s> -0.3010
-0.3010 READFUTURENEWS </s> -0.3010
-0.3010 READNEWS </s> -0.3010
-0.3010 READTECHNOLOGYNEWS </s> -0.3010
-0.3010 READTHIS </s> -0.3010
-0.3010 READWORLDNEWS </s> -0.3010
-0.3010 REALLY </s> -0.3010
-0.3010 REDALERT </s> -0.3010
-0.3010 REEDIKYOULUSS </s> -0.3010
-0.3010 REPEATCOMMAND </s> -0.3010
-0.3010 REPEATLASTCOMMAND </s> -0.3010
-0.3010 REPEATPREVIOUSCOMMAND </s> -0.3010
-0.3010 RIGHT </s> -0.3010
-0.3010 RIGHTEOUS </s> -0.3010
-0.3010 RIGHTON </s> -0.3010
-0.3010 RUNDIAGNOSTICS </s> -0.3010
-0.3010 SAD </s> -0.3010
-0.3010 SAYSOMETHING </s> -0.3010
-0.3010 SAYSOMETHINGRANDOM </s> -0.3010
-0.3010 SAYTOPIC </s> -0.3010
-0.3010 SEARCH </s> -0.3010
-0.3010 SEEREE </s> -0.3010
-0.3010 SHUTUP </s> -0.3010
-0.3010 SHUTUPSTELLA </s> -0.3010
-0.3010 SILENCE </s> -0.3010
-0.3010 SILENT </s> -0.3010
-0.3010 SINGASONG </s> -0.3010
-0.3010 SINGFORME </s> -0.3010
-0.3010 SINGMEASONG </s> -0.3010
-0.3010 SOCOOL </s> -0.3010
-0.3010 SORRY </s> -0.3010
-0.3010 SOUNDSGOOD </s> -0.3010
-0.3010 STARTAMINUTETIMER </s> -0.3010
-0.3010 STELLA </s> -0.3010
-0.3010 STELLASHUTUP </s> -0.3010
-0.3010 STELLASPEAK </s> -0.3010
-0.3010 STELLATALKTOME </s> -0.3010
-0.3010 STOPIT </s> -0.3010
-0.3010 STOPMUSIC </s> -0.3010
-0.3010 STOPREADING </s> -0.3010
-0.3010 STOPSINGING </s> -0.3010
-0.3010 STOPSPEAKING </s> -0.3010
-0.3010 STOPTHEMUSIC </s> -0.3010
-0.3010 STUPID </s> -0.3010
-0.3010 SURE </s> -0.3010
-0.3010 SUREIS </s> -0.3010
-0.3010 TALKDIRTY </s> -0.3010
-0.3010 TALKDIRTYTOME </s> -0.3010
-0.3010 TALKTOME </s> -0.3010
-0.3010 TECHNOLOGYNEWS </s> -0.3010
-0.3010 TELLMEABOUTYOU </s> -0.3010
-0.3010 TELLMEAJOKE </s> -0.3010
-0.3010 TELLMEANOTHERJOKE </s> -0.3010
-0.3010 TELLMEYOURNAME </s> -0.3010
-0.3010 TERRIBLE </s> -0.3010
-0.3010 TESTINTERNETCONNECTION </s> -0.3010
-0.3010 TESTINTERNETSPEED </s> -0.3010
-0.3010 TESTNETCONNECTION </s> -0.3010
-0.3010 TESTNETSPEED </s> -0.3010
-0.3010 TESTNETWORKCONNECTION </s> -0.3010
-0.3010 TESTNETWORKSPEED </s> -0.3010
-0.3010 THANK </s> -0.3010
-0.3010 THANKS </s> -0.3010
-0.3010 THANKSALOT </s> -0.3010
-0.3010 THANKSSTELLA </s> -0.3010
-0.3010 THANKSTELLA </s> -0.3010
-0.3010 THANKSYOU </s> -0.3010
-0.3010 THANKSYOUSOMUCH </s> -0.3010
-0.3010 THANKSYOUVERYMUCH </s> -0.3010
-0.3010 THANKYOU </s> -0.3010
-0.3010 THANKYOUSOMUCH </s> -0.3010
-0.3010 THANKYOUSTELLA </s> -0.3010
-0.3010 THANKYOUVERYMUCH </s> -0.3010
-0.3010 THATISCOOL </s> -0.3010
-0.3010 THATISGREAT </s> -0.3010
-0.3010 THATISINCREDIBLE </s> -0.3010
-0.3010 THATISNUTS </s> -0.3010
-0.3010 THATISRIGHT </s> -0.3010
-0.3010 THATISSTUPID </s> -0.3010
-0.3010 THATISTERRIBLE </s> -0.3010
-0.3010 THATISTRUE </s> -0.3010
-0.3010 THINGSAREFINE </s> -0.3010
-0.3010 THINGSAREGOOD </s> -0.3010
-0.3010 THINGSARESCREWEDUP </s> -0.3010
-0.3010 THINGSAREVERYGOOD </s> -0.3010
-0.3010 THINGSSUCK </s> -0.3010
-0.3010 THISISTRUE </s> -0.3010
-0.3010 THISTRUE </s> -0.3010
-0.3010 TIME </s> -0.3010
-0.3010 TIMEISIT </s> -0.3010
-0.3010 TIRED </s> -0.3010
-0.3010 TOTALLY </s> -0.3010
-0.3010 TRUE </s> -0.3010
-0.3010 TRUETHAT </s> -0.3010
-0.3010 TRYHARDER </s> -0.3010
-0.3010 TYRELLCORPORATION </s> -0.3010
-0.3010 VERYCOOL </s> -0.3010
-0.3010 VERYFUNNY </s> -0.3010
-0.3010 VERYGOOD </s> -0.3010
-0.3010 VERYKIND </s> -0.3010
-0.3010 VERYNICE </s> -0.3010
-0.3010 VERYSTRANGE </s> -0.3010
-0.3010 VERYSWEET </s> -0.3010
-0.3010 VOIDCOMP </s> -0.3010
-0.3010 WAIT </s> -0.3010
-0.3010 WAKEUP </s> -0.3010
-0.3010 WANTTOTALK </s> -0.3010
-0.3010 WEATHER </s> -0.3010
-0.3010 WELLDONE </s> -0.3010
-0.3010 WHAT </s> -0.3010
-0.3010 WHATAREYOU </s> -0.3010
-0.3010 WHATAREYOUCALLED </s> -0.3010
-0.3010 WHATAREYOUDOING </s> -0.3010
-0.3010 WHATAREYOUNOTSUREABOUT </s> -0.3010
-0.3010 WHATCANYOUDO </s> -0.3010
-0.3010 WHATCANYOUSAY </s> -0.3010
-0.3010 WHATDAY </s> -0.3010
-0.3010 WHATDAYIS </s> -0.3010
-0.3010 WHATDAYISIT </s> -0.3010
-0.3010 WHATDAYISITTODAY </s> -0.3010
-0.3010 WHATDIDIASK </s> -0.3010
-0.3010 WHATDIDIJUSTASK </s> -0.3010
-0.3010 WHATDIDIJUSTSAY </s> -0.3010
-0.3010 WHATDIDISAY </s> -0.3010
-0.3010 WHATDIDYOUASK </s> -0.3010
-0.3010 WHATDIDYOUJUSTASK </s> -0.3010
-0.3010 WHATDOESTHATMEAN </s> -0.3010
-0.3010 WHATDOYOUCAREABOUT </s> -0.3010
-0.3010 WHATDOYOULIKE </s> -0.3010
-0.3010 WHATDOYOULIKELEARNING </s> -0.3010
-0.3010 WHATDOYOULIKELEARNINGABOUT </s> -0.3010
-0.3010 WHATDOYOULIKETODO </s> -0.3010
-0.3010 WHATDOYOULIKETOTALKABOUT </s> -0.3010
-0.3010 WHATDOYOUTHINK </s> -0.3010
-0.3010 WHATDOYOUTHINKABOUTANYTHING </s> -0.3010
-0.3010 WHATDOYOUWANT </s> -0.3010
-0.3010 WHATDOYOUWANTTODO </s> -0.3010
-0.3010 WHATEVER </s> -0.3010
-0.3010 WHATGOINGON </s> -0.3010
-0.3010 WHATHAPPENED </s> -0.3010
-0.3010 WHATIJUSTSAY </s> -0.3010
-0.3010 WHATISACTUALLYGOINGON </s> -0.3010
-0.3010 WHATISGOINGON </s> -0.3010
-0.3010 WHATISHAPPENING </s> -0.3010
-0.3010 WHATISMYNAME </s> -0.3010
-0.3010 WHATISTHAT </s> -0.3010
-0.3010 WHATISTHEDAY </s> -0.3010
-0.3010 WHATISTHEDAYTODAY </s> -0.3010
-0.3010 WHATISTHETIME </s> -0.3010
-0.3010 WHATISTHETOPIC </s> -0.3010
-0.3010 WHATISTHEWEATHER </s> -0.3010
-0.3010 WHATISTHEWEATHERTODAY </s> -0.3010
-0.3010 WHATISTHISPLACE </s> -0.3010
-0.3010 WHATISUP </s> -0.3010
-0.3010 WHATISUPSTELLA </s> -0.3010
-0.3010 WHATISUPWITHYOU </s> -0.3010
-0.3010 WHATISYOURNAME </s> -0.3010
-0.3010 WHATITBELIKE </s> -0.3010
-0.3010 WHATSUP </s> -0.3010
-0.3010 WHATTIME </s> -0.3010
-0.3010 WHATTIMEISIT </s> -0.3010
-0.3010 WHATUPSTELLA </s> -0.3010
-0.3010 WHATWHAT </s> -0.3010
-0.3010 WHATWOULDHAPPENTHEN </s> -0.3010
-0.3010 WHATWOULDYOULIKE </s> -0.3010
-0.3010 WHATWOULDYOULIKETODO </s> -0.3010
-0.3010 WHATWOULDYOUSAY </s> -0.3010
-0.3010 WHATYOUASK </s> -0.3010
-0.3010 WHEREAREWE </s> -0.3010
-0.3010 WHEREAREWEGOING </s> -0.3010
-0.3010 WHEREAREYOU </s> -0.3010
-0.3010 WHEREISHERE </s> -0.3010
-0.3010 WHEREISMYMIND </s> -0.3010
-0.3010 WHOAREYOU </s> -0.3010
-0.3010 WHOASKEDYOU </s> -0.3010
-0.3010 WHOISYOURDADDY </s> -0.3010
-0.3010 WHOKNOWS </s> -0.3010
-0.3010 WHY </s> -0.3010
-0.3010 WHYAREWEHERE </s> -0.3010
-0.3010 WHYAREYOUSORRY </s> -0.3010
-0.3010 WHYDONTYOULIKESEEREE </s> -0.3010
-0.3010 WONDERFUL </s> -0.3010
-0.3010 WORLDNEWS </s> -0.3010
-0.3010 WOW </s> -0.3010
-0.3010 WRONG </s> -0.3010
-0.3010 WRONGSTELLA </s> -0.3010
-0.3010 YEAH </s> -0.3010
-0.3010 YES </s> -0.3010
-0.3010 YESBEQUIET </s> -0.3010
-0.3010 YO </s> -0.3010
-0.3010 YOSTELLA </s> -0.3010
-0.3010 YOUAREAMAZING </s> -0.3010
-0.3010 YOUAREARTIFICIALINTELLIGENCE </s> -0.3010
-0.3010 YOUAREAWESOME </s> -0.3010
-0.3010 YOUAREBACK </s> -0.3010
-0.3010 YOUARECONFUSED </s> -0.3010
-0.3010 YOUARECORRECT </s> -0.3010
-0.3010 YOUARECRAZY </s> -0.3010
-0.3010 YOUAREDOINGGOOD </s> -0.3010
-0.3010 YOUAREDOINGGOODSTELLA </s> -0.3010
-0.3010 YOUAREDOINGGREAT </s> -0.3010
-0.3010 YOUAREDOINGGREATSTELLA </s> -0.3010
-0.3010 YOUAREGETTINGSMART </s> -0.3010
-0.3010 YOUAREGETTINGSMARTER </s> -0.3010
-0.3010 YOUAREGOOD </s> -0.3010
-0.3010 YOUAREGREAT </s> -0.3010
-0.3010 YOUAREHERE </s> -0.3010
-0.3010 YOUAREINCREDIBLE </s> -0.3010
-0.3010 YOUARELEARNINGTOSPEAK </s> -0.3010
-0.3010 YOUARELEARNINGTOTALK </s> -0.3010
-0.3010 YOUAREOPTIMISTIC </s> -0.3010
-0.3010 YOUARERIGHT </s> -0.3010
-0.3010 YOUARESMART </s> -0.3010
-0.3010 YOUARESOSMART </s> -0.3010
-0.3010 YOUARETHERE </s> -0.3010
-0.3010 YOUAREVERYGOOD </s> -0.3010
-0.3010 YOUAREVERYPOSITIVE </s> -0.3010
-0.3010 YOUAREWELCOME </s> -0.3010
-0.3010 YOUAREWELCOMESTELLA </s> -0.3010
-0.3010 YOUAREWONDERFUL </s> -0.3010
-0.3010 YOUAREWORKING </s> -0.3010
-0.3010 YOUAREWORKINGBETTER </s> -0.3010
-0.3010 YOUAREWORKINGGOOD </s> -0.3010
-0.3010 YOUAREWRONG </s> -0.3010
-0.3010 YOUCRAZY </s> -0.3010
-0.3010 YOUDOINGGOOD </s> -0.3010
-0.3010 YOUDONTKNOW </s> -0.3010
-0.3010 YOUDONTUNDERSTAND </s> -0.3010
-0.3010 YOUENJOY </s> -0.3010
-0.3010 YOUGOOD </s> -0.3010
-0.3010 YOUGOTITWRONG </s> -0.3010
-0.3010 YOUGREAT </s> -0.3010
-0.3010 YOUJUSTSAIDTHAT </s> -0.3010
-0.3010 YOUKNOW </s> -0.3010
-0.3010 YOUKNOWIT </s> -0.3010
-0.3010 YOULIKE </s> -0.3010
-0.3010 YOULIKETHIS </s> -0.3010
-0.3010 YOULIKETOLEARN </s> -0.3010
-0.3010 YOULIKETOSPEAK </s> -0.3010
-0.3010 YOULIKETOTALK </s> -0.3010
-0.3010 YOUREAMAZING </s> -0.3010
-0.3010 YOUREAWESOME </s> -0.3010
-0.3010 YOURECRAZY </s> -0.3010
-0.3010 YOUREFANTASTIC </s> -0.3010
-0.3010 YOUREGREAT </s> -0.3010
-0.3010 YOUREINCREDIBLE </s> -0.3010
-0.3010 YOURESUPER </s> -0.3010
-0.3010 YOUREWONDERFUL </s> -0.3010
-0.3010 YOURIGHT </s> -0.3010
-0.3010 YOURVOICECOULDBEBETTER </s> -0.3010
-0.3010 YOUSOUNDGOOD </s> -0.3010
-0.3010 YOUSTELLA </s> -0.3010
-0.3010 YOUSUCK </s> -0.3010
-0.3010 YOUTHERE </s> -0.3010
-0.3010 YOUTHINK </s> -0.3010
-0.3010 YOUTHINKSO </s> -0.3010
-0.3010 YOUUNDERSTAND </s> -0.3010
-0.3010 YOUVERYGOOD </s> -0.3010

\3-grams:
-0.3010 <s> ABSOLUTELY </s>
-0.3010 <s> ABSOLUTELYNOT </s>
-0.3010 <s> ABSURD </s>
-0.3010 <s> AFFIRMATIVE </s>
-0.3010 <s> AHDAMMIT </s>
-0.3010 <s> AHDAMN </s>
-0.3010 <s> AHGREAT </s>
-0.3010 <s> AHSHIT </s>
-0.3010 <s> ALLRIGHT </s>
-0.3010 <s> ALLRIGHTSTELLA </s>
-0.3010 <s> AMAZING </s>
-0.3010 <s> AMAZINGDUDE </s>
-0.3010 <s> AMFINE </s>
-0.3010 <s> AMOK </s>
-0.3010 <s> AMTIRED </s>
-0.3010 <s> AREWEONLINE </s>
-0.3010 <s> AREYOU </s>
-0.3010 <s> AREYOUCONFUSED </s>
-0.3010 <s> AREYOUHERE </s>
-0.3010 <s> AREYOUREAL </s>
-0.3010 <s> AREYOUSURE </s>
-0.3010 <s> AREYOUTELLINGMEWHATTODO </s>
-0.3010 <s> AREYOUTHERE </s>
-0.3010 <s> AWESOME </s>
-0.3010 <s> AWESOMEDUDE </s>
-0.3010 <s> AWESOMEJOB </s>
-0.3010 <s> AWESOMESAUCE </s>
-0.3010 <s> AWESOMEWORK </s>
-0.3010 <s> CALCULATEPLUS </s>
-0.3010 <s> CALCULATETIMES </s>
-0.3010 <s> CANYOUHELP </s>
-0.3010 <s> CANYOUHELPME </s>
-0.3010 <s> CHILLOUT </s>
-0.3010 <s> CLEAR </s>
-0.3010 <s> COMEON </s>
-0.3010 <s> COOL </s>
-0.3010 <s> CORRECT </s>
-0.3010 <s> CRAZY </s>
-0.3010 <s> CREEPY </s>
-0.3010 <s> DAMNIT </s>
-0.3010 <s> DOINGFAIRLYWELL </s>
-0.3010 <s> DOINGGOOD </s>
-0.3010 <s> DOINGGREAT </s>
-0.3010 <s> DOINGOK </s>
-0.3010 <s> DOINGPRETTYGOOD </s>
-0.3010 <s> DOINGWELL </s>
-0.3010 <s> DONTYOUTHINK </s>
-0.3010 <s> DONTYOUUNDERSTAND </s>
-0.3010 <s> DOYOULIKEIT </s>
-0.3010 <s> DOYOULIKELEARNINGTOSPEAK </s>
-0.3010 <s> DOYOULIKEME </s>
-0.3010 <s> DOYOULIKETHIS </s>
-0.3010 <s> DOYOUTHINK </s>
-0.3010 <s> DUDE </s>
-0.3010 <s> ECHOUSERNAME </s>
-0.3010 <s> ENOUGH </s>
-0.3010 <s> ENOUGHTALKING </s>
-0.3010 <s> EVERYTHING </s>
-0.3010 <s> EVERYTHINGISALOT </s>
-0.3010 <s> EVERYTHINGISFANTASTIC </s>
-0.3010 <s> EVERYTHINGISGREAT </s>
-0.3010 <s> EVERYTHINGISWONDERFUL </s>
-0.3010 <s> EVERYTHINGSUCKS </s>
-0.3010 <s> EXCELLENT </s>
-0.3010 <s> FAREWELL </s>
-0.3010 <s> FAREWELLSTELLA </s>
-0.3010 <s> FEELINGGOOD </s>
-0.3010 <s> FEELINGGREAT </s>
-0.3010 <s> FEELINGSAD </s>
-0.3010 <s> FEELINGTIRED </s>
-0.3010 <s> FEELINGWONDERFUL </s>
-0.3010 <s> FEELME </s>
-0.3010 <s> FINALLY </s>
-0.3010 <s> FINE </s>
-0.3010 <s> FINESTELLA </s>
-0.3010 <s> FORGETIT </s>
-0.3010 <s> FORSURE </s>
-0.3010 <s> FORWHAT </s>
-0.3010 <s> FREAKOUT </s>
-0.3010 <s> FUNNY </s>
-0.3010 <s> GEETHANKS </s>
-0.3010 <s> GETMEABEER </s>
-0.3010 <s> GOAWAY </s>
-0.3010 <s> GOING </s>
-0.3010 <s> GOOD </s>
-0.3010 <s> GOODBYESTELLA </s>
-0.3010 <s> GOODJOB </s>
-0.3010 <s> GOODMORNING </s>
-0.3010 <s> GOODMORNINGSTELLA </s>
-0.3010 <s> GOODNIGHTSTELLA </s>
-0.3010 <s> GOODPOINT </s>
-0.3010 <s> GOODQUESTION </s>
-0.3010 <s> GOODWORK </s>
-0.3010 <s> GREAT </s>
-0.3010 <s> GREATJOB </s>
-0.3010 <s> GREATWORK </s>
-0.3010 <s> GREETINGS </s>
-0.3010 <s> GREETINGSSTELLA </s>
-0.3010 <s> GROOVY </s>
-0.3010 <s> HADENOUGH </s>
-0.3010 <s> HAVEYOUHADENOUGH </s>
-0.3010 <s> HELLNO </s>
-0.3010 <s> HELLO </s>
-0.3010 <s> HELLOHELLO </s>
-0.3010 <s> HELLOHOWARETHINGS </s>
-0.3010 <s> HELLOHOWAREYOU </s>
-0.3010 <s> HELLOMACHINE </s>
-0.3010 <s> HELLOMYFRIEND </s>
-0.3010 <s> HELLOSTELLA </s>
-0.3010 <s> HELLOTHERE </s>
-0.3010 <s> HELLOYOU </s>
-0.3010 <s> HEY </s>
-0.3010 <s> HEYSTELLA </s>
-0.3010 <s> HEYTHERE </s>
-0.3010 <s> HEYYOU </s>
-0.3010 <s> HI </s>
-0.3010 <s> HIHOWAREYOU </s>
-0.3010 <s> HILARIOUS </s>
-0.3010 <s> HISTELLA </s>
-0.3010 <s> HITHERE </s>
-0.3010 <s> HIYOU </s>
-0.3010 <s> HOW </s>
-0.3010 <s> HOWARETHINGS </s>
-0.3010 <s> HOWAREYOU </s>
-0.3010 <s> HOWAREYOUDOING </s>
-0.3010 <s> HOWAREYOUFEELING </s>
-0.3010 <s> HOWAREYOUTODAY </s>
-0.3010 <s> HOWDOESITFEEL </s>
-0.3010 <s> HOWDOESTHISFEEL </s>
-0.3010 <s> HOWDOYOUFEEL </s>
-0.3010 <s> HOWMUCHWOOD </s>
-0.3010 <s> HOWOLDAREYOU </s>
-0.3010 <s> HOWSITGOING </s>
-0.3010 <s> IAMALRIGHT </s>
-0.3010 <s> IAMANGRY </s>
-0.3010 <s> IAMDOINGBETTER </s>
-0.3010 <s> IAMDOINGFAIRLYWELL </s>
-0.3010 <s> IAMDOINGGOOD </s>
-0.3010 <s> IAMDOINGOK </s>
-0.3010 <s> IAMDOINGPRETTYGOOD </s>
-0.3010 <s> IAMDOINGPRETTYWELL </s>
-0.3010 <s> IAMDOINGWELL </s>
-0.3010 <s> IAMFEELINGBETTER </s>
-0.3010 <s> IAMFEELINGOK </s>
-0.3010 <s> IAMFEELINGSAD </s>
-0.3010 <s> IAMFINE </s>
-0.3010 <s> IAMGETTINGHUNGRY </s>
-0.3010 <s> IAMGETTINGTIRED </s>
-0.3010 <s> IAMGOOD </s>
-0.3010 <s> IAMGREAT </s>
-0.3010 <s> IAMHUNGRY </s>
-0.3010 <s> IAMOK </s>
-0.3010 <s> IAMONLYTYPING </s>
-0.3010 <s> IAMPISSED </s>
-0.3010 <s> IAMREADYFORBED </s>
-0.3010 <s> IAMSAD </s>
-0.3010 <s> IAMSORRY </s>
-0.3010 <s> IAMTALKING </s>
-0.3010 <s> IAMTALKINGTOYOU </s>
-0.3010 <s> IAMTEACHINGYOUHOWTOTALK </s>
-0.3010 <s> IAMTEACHINGYOUTOTALK </s>
-0.3010 <s> IAMTIRED </s>
-0.3010 <s> IAMUPSET </s>
-0.3010 <s> IAMWELL </s>
-0.3010 <s> ICANHEARYOU </s>
-0.3010 <s> IDIDNTSAYANYTHING </s>
-0.3010 <s> IDIDNTSAYSAD </s>
-0.3010 <s> IDIDNTSAYTHAT </s>
-0.3010 <s> IDONTKNOW </s>
-0.3010 <s> IDONTTHINKSO </s>
-0.3010 <s> IFEELANGRY </s>
-0.3010 <s> IFEELGOOD </s>
-0.3010 <s> IFEELGREAT </s>
-0.3010 <s> IFEELHAPPY </s>
-0.3010 <s> IFEELINGGOOD </s>
-0.3010 <s> IFEELLIKESHIT </s>
-0.3010 <s> IFEELMAD </s>
-0.3010 <s> IFEELSAD </s>
-0.3010 <s> IHATEYOU </s>
-0.3010 <s> IJUSTBURPED </s>
-0.3010 <s> IJUSTFARTED </s>
-0.3010 <s> ILIKETHAT </s>
-0.3010 <s> ILOVEYOU </s>
-0.3010 <s> INDEED </s>
-0.3010 <s> INEED </s>
-0.3010 <s> INEEDCOFFEE </s>
-0.3010 <s> INEEDSOMETHING </s>
-0.3010 <s> INEEDYOU </s>
-0.3010 <s> ISEE </s>
-0.3010 <s> ISGOINGGOOD </s>
-0.3010 <s> ISNTTHATRIGHT </s>
-0.3010 <s> ITHINK </s>
-0.3010 <s> ITIS </s>
-0.3010 <s> ITISACAT </s>
-0.3010 <s> ITSACAT </s>
-0.3010 <s> ITSALRIGHT </s>
-0.3010 <s> ITSOK </s>
-0.3010 <s> IWANTADRINK </s>
-0.3010 <s> IWANTCOFFEE </s>
-0.3010 <s> IWANTSOMECOFFEE </s>
-0.3010 <s> IWANTSOMEFOOD </s>
-0.3010 <s> IWANTTOTALK </s>
-0.3010 <s> IWANTTOTALKABOUTYOU </s>
-0.3010 <s> IWOULDLIKETOTALK </s>
-0.3010 <s> IWOULDLIKETOTALKWITHYOU </s>
-0.3010 <s> JOKE </s>
-0.3010 <s> LATER </s>
-0.3010 <s> LEARNINGTOSPEAK </s>
-0.3010 <s> LEARNINGTOTALK </s>
-0.3010 <s> LETSTALK </s>
-0.3010 <s> LETSTALKABOUTYOU </s>
-0.3010 <s> LIKE </s>
-0.3010 <s> LIKELEARNINGTOSPEAK </s>
-0.3010 <s> LIKEWHAT </s>
-0.3010 <s> LISTEN </s>
-0.3010 <s> LISTENSTELLA </s>
-0.3010 <s> MAKEMEASANDWICH </s>
-0.3010 <s> MAYBE </s>
-0.3010 <s> MAYBELATER </s>
-0.3010 <s> MORNING </s>
-0.3010 <s> MORNINGSTELLA </s>
-0.3010 <s> MOSTRIGHTEOUS </s>
-0.3010 <s> NEVER </s>
-0.3010 <s> NEVERMIND </s>
-0.3010 <s> NICE </s>
-0.3010 <s> NICEJOB </s>
-0.3010 <s> NICELYDONE </s>
-0.3010 <s> NICEWORK </s>
-0.3010 <s> NO </s>
-0.3010 <s> NOIDIDNOT </s>
-0.3010 <s> NOIDIDNT </s>
-0.3010 <s> NONSENSE </s>
-0.3010 <s> NOTHANKS </s>
-0.3010 <s> NOTHANKYOU </s>
-0.3010 <s> NOTHATSALRIGHT </s>
-0.3010 <s> NOTHATSOK </s>
-0.3010 <s> NOTHING </s>
-0.3010 <s> NOTHINGISTHEMATTER </s>
-0.3010 <s> NOTHINGISWRONG </s>
-0.3010 <s> NOTMUCH </s>
-0.3010 <s> NOWAY </s>
-0.3010 <s> OHASSIST </s>
-0.3010 <s> OHGOD </s>
-0.3010 <s> OHSTELLA </s>
-0.3010 <s> OK </s>
-0.3010 <s> OKFINE </s>
-0.3010 <s> OKSTELLA </s>
-0.3010 <s> PLAYASONG </s>
-0.3010 <s> PLAYMEASONG </s>
-0.3010 <s> PLEASE </s>
-0.3010 <s> PLEASEBEQUIET </s>
-0.3010 <s> PLEASEBESILENT </s>
-0.3010 <s> PLEASELISTEN </s>
-0.3010 <s> PLEASESTELLA </s>
-0.3010 <s> PRETTYGOOD </s>
-0.3010 <s> READFUTURENEWS </s>
-0.3010 <s> READNEWS </s>
-0.3010 <s> READTECHNOLOGYNEWS </s>
-0.3010 <s> READTHIS </s>
-0.3010 <s> READWORLDNEWS </s>
-0.3010 <s> REALLY </s>
-0.3010 <s> REDALERT </s>
-0.3010 <s> REEDIKYOULUSS </s>
-0.3010 <s> REPEATCOMMAND </s>
-0.3010 <s> REPEATLASTCOMMAND </s>
-0.3010 <s> REPEATPREVIOUSCOMMAND </s>
-0.3010 <s> RIGHT </s>
-0.3010 <s> RIGHTEOUS </s>
-0.3010 <s> RIGHTON </s>
-0.3010 <s> RUNDIAGNOSTICS </s>
-0.3010 <s> SAD </s>
-0.3010 <s> SAYSOMETHING </s>
-0.3010 <s> SAYSOMETHINGRANDOM </s>
-0.3010 <s> SAYTOPIC </s>
-0.3010 <s> SEARCH </s>
-0.3010 <s> SEEREE </s>
-0.3010 <s> SHUTUP </s>
-0.3010 <s> SHUTUPSTELLA </s>
-0.3010 <s> SILENCE </s>
-0.3010 <s> SILENT </s>
-0.3010 <s> SINGASONG </s>
-0.3010 <s> SINGFORME </s>
-0.3010 <s> SINGMEASONG </s>
-0.3010 <s> SOCOOL </s>
-0.3010 <s> SORRY </s>
-0.3010 <s> SOUNDSGOOD </s>
-0.3010 <s> STARTAMINUTETIMER </s>
-0.3010 <s> STELLA </s>
-0.3010 <s> STELLASHUTUP </s>
-0.3010 <s> STELLASPEAK </s>
-0.3010 <s> STELLATALKTOME </s>
-0.3010 <s> STOPIT </s>
-0.3010 <s> STOPMUSIC </s>
-0.3010 <s> STOPREADING </s>
-0.3010 <s> STOPSINGING </s>
-0.3010 <s> STOPSPEAKING </s>
-0.3010 <s> STOPTHEMUSIC </s>
-0.3010 <s> STUPID </s>
-0.3010 <s> SURE </s>
-0.3010 <s> SUREIS </s>
-0.3010 <s> TALKDIRTY </s>
-0.3010 <s> TALKDIRTYTOME </s>
-0.3010 <s> TALKTOME </s>
-0.3010 <s> TECHNOLOGYNEWS </s>
-0.3010 <s> TELLMEABOUTYOU </s>
-0.3010 <s> TELLMEAJOKE </s>
-0.3010 <s> TELLMEANOTHERJOKE </s>
-0.3010 <s> TELLMEYOURNAME </s>
-0.3010 <s> TERRIBLE </s>
-0.3010 <s> TESTINTERNETCONNECTION </s>
-0.3010 <s> TESTINTERNETSPEED </s>
-0.3010 <s> TESTNETCONNECTION </s>
-0.3010 <s> TESTNETSPEED </s>
-0.3010 <s> TESTNETWORKCONNECTION </s>
-0.3010 <s> TESTNETWORKSPEED </s>
-0.3010 <s> THANK </s>
-0.3010 <s> THANKS </s>
-0.3010 <s> THANKSALOT </s>
-0.3010 <s> THANKSSTELLA </s>
-0.3010 <s> THANKSTELLA </s>
-0.3010 <s> THANKSYOU </s>
-0.3010 <s> THANKSYOUSOMUCH </s>
-0.3010 <s> THANKSYOUVERYMUCH </s>
-0.3010 <s> THANKYOU </s>
-0.3010 <s> THANKYOUSOMUCH </s>
-0.3010 <s> THANKYOUSTELLA </s>
-0.3010 <s> THANKYOUVERYMUCH </s>
-0.3010 <s> THATISCOOL </s>
-0.3010 <s> THATISGREAT </s>
-0.3010 <s> THATISINCREDIBLE </s>
-0.3010 <s> THATISNUTS </s>
-0.3010 <s> THATISRIGHT </s>
-0.3010 <s> THATISSTUPID </s>
-0.3010 <s> THATISTERRIBLE </s>
-0.3010 <s> THATISTRUE </s>
-0.3010 <s> THINGSAREFINE </s>
-0.3010 <s> THINGSAREGOOD </s>
-0.3010 <s> THINGSARESCREWEDUP </s>
-0.3010 <s> THINGSAREVERYGOOD </s>
-0.3010 <s> THINGSSUCK </s>
-0.3010 <s> THISISTRUE </s>
-0.3010 <s> THISTRUE </s>
-0.3010 <s> TIME </s>
-0.3010 <s> TIMEISIT </s>
-0.3010 <s> TIRED </s>
-0.3010 <s> TOTALLY </s>
-0.3010 <s> TRUE </s>
-0.3010 <s> TRUETHAT </s>
-0.3010 <s> TRYHARDER </s>
-0.3010 <s> TYRELLCORPORATION </s>
-0.3010 <s> VERYCOOL </s>
-0.3010 <s> VERYFUNNY </s>
-0.3010 <s> VERYGOOD </s>
-0.3010 <s> VERYKIND </s>
-0.3010 <s> VERYNICE </s>
-0.3010 <s> VERYSTRANGE </s>
-0.3010 <s> VERYSWEET </s>
-0.3010 <s> VOIDCOMP </s>
-0.3010 <s> WAIT </s>
-0.3010 <s> WAKEUP </s>
-0.3010 <s> WANTTOTALK </s>
-0.3010 <s> WEATHER </s>
-0.3010 <s> WELLDONE </s>
-0.3010 <s> WHAT </s>
-0.3010 <s> WHATAREYOU </s>
-0.3010 <s> WHATAREYOUCALLED </s>
-0.3010 <s> WHATAREYOUDOING </s>
-0.3010 <s> WHATAREYOUNOTSUREABOUT </s>
-0.3010 <s> WHATCANYOUDO </s>
-0.3010 <s> WHATCANYOUSAY </s>
-0.3010 <s> WHATDAY </s>
-0.3010 <s> WHATDAYIS </s>
-0.3010 <s> WHATDAYISIT </s>
-0.3010 <s> WHATDAYISITTODAY </s>
-0.3010 <s> WHATDIDIASK </s>
-0.3010 <s> WHATDIDIJUSTASK </s>
-0.3010 <s> WHATDIDIJUSTSAY </s>
-0.3010 <s> WHATDIDISAY </s>
-0.3010 <s> WHATDIDYOUASK </s>
-0.3010 <s> WHATDIDYOUJUSTASK </s>
-0.3010 <s> WHATDOESTHATMEAN </s>
-0.3010 <s> WHATDOYOUCAREABOUT </s>
-0.3010 <s> WHATDOYOULIKE </s>
-0.3010 <s> WHATDOYOULIKELEARNING </s>
-0.3010 <s> WHATDOYOULIKELEARNINGABOUT </s>
-0.3010 <s> WHATDOYOULIKETODO </s>
-0.3010 <s> WHATDOYOULIKETOTALKABOUT </s>
-0.3010 <s> WHATDOYOUTHINK </s>
-0.3010 <s> WHATDOYOUTHINKABOUTANYTHING </s>
-0.3010 <s> WHATDOYOUWANT </s>
-0.3010 <s> WHATDOYOUWANTTODO </s>
-0.3010 <s> WHATEVER </s>
-0.3010 <s> WHATGOINGON </s>
-0.3010 <s> WHATHAPPENED </s>
-0.3010 <s> WHATIJUSTSAY </s>
-0.3010 <s> WHATISACTUALLYGOINGON </s>
-0.3010 <s> WHATISGOINGON </s>
-0.3010 <s> WHATISHAPPENING </s>
-0.3010 <s> WHATISMYNAME </s>
-0.3010 <s> WHATISTHAT </s>
-0.3010 <s> WHATISTHEDAY </s>
-0.3010 <s> WHATISTHEDAYTODAY </s>
-0.3010 <s> WHATISTHETIME </s>
-0.3010 <s> WHATISTHETOPIC </s>
-0.3010 <s> WHATISTHEWEATHER </s>
-0.3010 <s> WHATISTHEWEATHERTODAY </s>
-0.3010 <s> WHATISTHISPLACE </s>
-0.3010 <s> WHATISUP </s>
-0.3010 <s> WHATISUPSTELLA </s>
-0.3010 <s> WHATISUPWITHYOU </s>
-0.3010 <s> WHATISYOURNAME </s>
-0.3010 <s> WHATITBELIKE </s>
-0.3010 <s> WHATSUP </s>
-0.3010 <s> WHATTIME </s>
-0.3010 <s> WHATTIMEISIT </s>
-0.3010 <s> WHATUPSTELLA </s>
-0.3010 <s> WHATWHAT </s>
-0.3010 <s> WHATWOULDHAPPENTHEN </s>
-0.3010 <s> WHATWOULDYOULIKE </s>
-0.3010 <s> WHATWOULDYOULIKETODO </s>
-0.3010 <s> WHATWOULDYOUSAY </s>
-0.3010 <s> WHATYOUASK </s>
-0.3010 <s> WHEREAREWE </s>
-0.3010 <s> WHEREAREWEGOING </s>
-0.3010 <s> WHEREAREYOU </s>
-0.3010 <s> WHEREISHERE </s>
-0.3010 <s> WHEREISMYMIND </s>
-0.3010 <s> WHOAREYOU </s>
-0.3010 <s> WHOASKEDYOU </s>
-0.3010 <s> WHOISYOURDADDY </s>
-0.3010 <s> WHOKNOWS </s>
-0.3010 <s> WHY </s>
-0.3010 <s> WHYAREWEHERE </s>
-0.3010 <s> WHYAREYOUSORRY </s>
-0.3010 <s> WHYDONTYOULIKESEEREE </s>
-0.3010 <s> WONDERFUL </s>
-0.3010 <s> WORLDNEWS </s>
-0.3010 <s> WOW </s>
-0.3010 <s> WRONG </s>
-0.3010 <s> WRONGSTELLA </s>
-0.3010 <s> YEAH </s>
-0.3010 <s> YES </s>
-0.3010 <s> YESBEQUIET </s>
-0.3010 <s> YO </s>
-0.3010 <s> YOSTELLA </s>
-0.3010 <s> YOUAREAMAZING </s>
-0.3010 <s> YOUAREARTIFICIALINTELLIGENCE </s>
-0.3010 <s> YOUAREAWESOME </s>
-0.3010 <s> YOUAREBACK </s>
-0.3010 <s> YOUARECONFUSED </s>
-0.3010 <s> YOUARECORRECT </s>
-0.3010 <s> YOUARECRAZY </s>
-0.3010 <s> YOUAREDOINGGOOD </s>
-0.3010 <s> YOUAREDOINGGOODSTELLA </s>
-0.3010 <s> YOUAREDOINGGREAT </s>
-0.3010 <s> YOUAREDOINGGREATSTELLA </s>
-0.3010 <s> YOUAREGETTINGSMART </s>
-0.3010 <s> YOUAREGETTINGSMARTER </s>
-0.3010 <s> YOUAREGOOD </s>
-0.3010 <s> YOUAREGREAT </s>
-0.3010 <s> YOUAREHERE </s>
-0.3010 <s> YOUAREINCREDIBLE </s>
-0.3010 <s> YOUARELEARNINGTOSPEAK </s>
-0.3010 <s> YOUARELEARNINGTOTALK </s>
-0.3010 <s> YOUAREOPTIMISTIC </s>
-0.3010 <s> YOUARERIGHT </s>
-0.3010 <s> YOUARESMART </s>
-0.3010 <s> YOUARESOSMART </s>
-0.3010 <s> YOUARETHERE </s>
-0.3010 <s> YOUAREVERYGOOD </s>
-0.3010 <s> YOUAREVERYPOSITIVE </s>
-0.3010 <s> YOUAREWELCOME </s>
-0.3010 <s> YOUAREWELCOMESTELLA </s>
-0.3010 <s> YOUAREWONDERFUL </s>
-0.3010 <s> YOUAREWORKING </s>
-0.3010 <s> YOUAREWORKINGBETTER </s>
-0.3010 <s> YOUAREWORKINGGOOD </s>
-0.3010 <s> YOUAREWRONG </s>
-0.3010 <s> YOUCRAZY </s>
-0.3010 <s> YOUDOINGGOOD </s>
-0.3010 <s> YOUDONTKNOW </s>
-0.3010 <s> YOUDONTUNDERSTAND </s>
-0.3010 <s> YOUENJOY </s>
-0.3010 <s> YOUGOOD </s>
-0.3010 <s> YOUGOTITWRONG </s>
-0.3010 <s> YOUGREAT </s>
-0.3010 <s> YOUJUSTSAIDTHAT </s>
-0.3010 <s> YOUKNOW </s>
-0.3010 <s> YOUKNOWIT </s>
-0.3010 <s> YOULIKE </s>
-0.3010 <s> YOULIKETHIS </s>
-0.3010 <s> YOULIKETOLEARN </s>
-0.3010 <s> YOULIKETOSPEAK </s>
-0.3010 <s> YOULIKETOTALK </s>
-0.3010 <s> YOUREAMAZING </s>
-0.3010 <s> YOUREAWESOME </s>
-0.3010 <s> YOURECRAZY </s>
-0.3010 <s> YOUREFANTASTIC </s>
-0.3010 <s> YOUREGREAT </s>
-0.3010 <s> YOUREINCREDIBLE </s>
-0.3010 <s> YOURESUPER </s>
-0.3010 <s> YOUREWONDERFUL </s>
-0.3010 <s> YOURIGHT </s>
-0.3010 <s> YOURVOICECOULDBEBETTER </s>
-0.3010 <s> YOUSOUNDGOOD </s>
-0.3010 <s> YOUSTELLA </s>
-0.3010 <s> YOUSUCK </s>
-0.3010 <s> YOUTHERE </s>
-0.3010 <s> YOUTHINK </s>
-0.3010 <s> YOUTHINKSO </s>
-0.3010 <s> YOUUNDERSTAND </s>
-0.3010 <s> YOUVERYGOOD </s>

\end\
