Language model created by QuickLM on Thu Apr 19 15:43:47 EDT 2018
Copyright (c) 1996-2010 Carnegie Mellon University and Alexander I. Rudnicky

The model is in standard ARPA format, designed by Doug Paul while he was at MITRE.

The code that was used to produce this language model is available in Open Source.
Please visit http://www.speech.cs.cmu.edu/tools/ for more information

The (fixed) discount mass is 0.5. The backoffs are computed using the ratio method.
This model based on a corpus of 48 sentences and 50 words

\data\
ngram 1=50
ngram 2=96
ngram 3=48

\1-grams:
-0.7782 </s> -0.3010
-0.7782 <s> -0.2218
-2.4594 BILLION -0.2218
-2.4594 CLOSE -0.2218
-2.4594 DIVIDE -0.2218
-2.4594 DOT -0.2218
-2.4594 EIGHT -0.2218
-2.4594 EIGHTEEN -0.2218
-2.4594 EIGHTY -0.2218
-2.4594 ELEVEN -0.2218
-2.4594 EQUAL -0.2218
-2.4594 FIFTEEN -0.2218
-2.4594 FIFTY -0.2218
-2.4594 FIVE -0.2218
-2.4594 FORTY -0.2218
-2.4594 FOUR -0.2218
-2.4594 FOURTEEN -0.2218
-2.4594 HOME -0.2218
-2.4594 HUNDRED -0.2218
-2.4594 LOGARITHM -0.2218
-2.4594 MILLION -0.2218
-2.4594 MINUS -0.2218
-2.4594 MULTIPLY -0.2218
-2.4594 NINE -0.2218
-2.4594 NINTEEN -0.2218
-2.4594 NINTY -0.2218
-2.4594 ONE -0.2218
-2.4594 OPEN -0.2218
-2.4594 PI -0.2218
-2.4594 PLUS -0.2218
-2.4594 POINT -0.2218
-2.4594 POWER -0.2218
-2.4594 QUIT -0.2218
-2.4594 RESULT -0.2218
-2.4594 SEVEN -0.2218
-2.4594 SEVENTEEN -0.2218
-2.4594 SEVENTY -0.2218
-2.4594 SIX -0.2218
-2.4594 SIXTEEN -0.2218
-2.4594 SIXTY -0.2218
-2.4594 SQUARE -0.2218
-2.4594 TEN -0.2218
-2.4594 THIRTEEN -0.2218
-2.4594 THIRTY -0.2218
-2.4594 THOUSAND -0.2218
-2.4594 THREE -0.2218
-2.4594 TWELVE -0.2218
-2.4594 TWENTY -0.2218
-2.4594 TWO -0.2218
-2.4594 ZERO -0.2218

\2-grams:
-1.9823 <s> BILLION 0.0000
-1.9823 <s> CLOSE 0.0000
-1.9823 <s> DIVIDE 0.0000
-1.9823 <s> DOT 0.0000
-1.9823 <s> EIGHT 0.0000
-1.9823 <s> EIGHTEEN 0.0000
-1.9823 <s> EIGHTY 0.0000
-1.9823 <s> ELEVEN 0.0000
-1.9823 <s> EQUAL 0.0000
-1.9823 <s> FIFTEEN 0.0000
-1.9823 <s> FIFTY 0.0000
-1.9823 <s> FIVE 0.0000
-1.9823 <s> FORTY 0.0000
-1.9823 <s> FOUR 0.0000
-1.9823 <s> FOURTEEN 0.0000
-1.9823 <s> HOME 0.0000
-1.9823 <s> HUNDRED 0.0000
-1.9823 <s> LOGARITHM 0.0000
-1.9823 <s> MILLION 0.0000
-1.9823 <s> MINUS 0.0000
-1.9823 <s> MULTIPLY 0.0000
-1.9823 <s> NINE 0.0000
-1.9823 <s> NINTEEN 0.0000
-1.9823 <s> NINTY 0.0000
-1.9823 <s> ONE 0.0000
-1.9823 <s> OPEN 0.0000
-1.9823 <s> PI 0.0000
-1.9823 <s> PLUS 0.0000
-1.9823 <s> POINT 0.0000
-1.9823 <s> POWER 0.0000
-1.9823 <s> QUIT 0.0000
-1.9823 <s> RESULT 0.0000
-1.9823 <s> SEVEN 0.0000
-1.9823 <s> SEVENTEEN 0.0000
-1.9823 <s> SEVENTY 0.0000
-1.9823 <s> SIX 0.0000
-1.9823 <s> SIXTEEN 0.0000
-1.9823 <s> SIXTY 0.0000
-1.9823 <s> SQUARE 0.0000
-1.9823 <s> TEN 0.0000
-1.9823 <s> THIRTEEN 0.0000
-1.9823 <s> THIRTY 0.0000
-1.9823 <s> THOUSAND 0.0000
-1.9823 <s> THREE 0.0000
-1.9823 <s> TWELVE 0.0000
-1.9823 <s> TWENTY 0.0000
-1.9823 <s> TWO 0.0000
-1.9823 <s> ZERO 0.0000
-0.3010 BILLION </s> -0.3010
-0.3010 CLOSE </s> -0.3010
-0.3010 DIVIDE </s> -0.3010
-0.3010 DOT </s> -0.3010
-0.3010 EIGHT </s> -0.3010
-0.3010 EIGHTEEN </s> -0.3010
-0.3010 EIGHTY </s> -0.3010
-0.3010 ELEVEN </s> -0.3010
-0.3010 EQUAL </s> -0.3010
-0.3010 FIFTEEN </s> -0.3010
-0.3010 FIFTY </s> -0.3010
-0.3010 FIVE </s> -0.3010
-0.3010 FORTY </s> -0.3010
-0.3010 FOUR </s> -0.3010
-0.3010 FOURTEEN </s> -0.3010
-0.3010 HOME </s> -0.3010
-0.3010 HUNDRED </s> -0.3010
-0.3010 LOGARITHM </s> -0.3010
-0.3010 MILLION </s> -0.3010
-0.3010 MINUS </s> -0.3010
-0.3010 MULTIPLY </s> -0.3010
-0.3010 NINE </s> -0.3010
-0.3010 NINTEEN </s> -0.3010
-0.3010 NINTY </s> -0.3010
-0.3010 ONE </s> -0.3010
-0.3010 OPEN </s> -0.3010
-0.3010 PI </s> -0.3010
-0.3010 PLUS </s> -0.3010
-0.3010 POINT </s> -0.3010
-0.3010 POWER </s> -0.3010
-0.3010 QUIT </s> -0.3010
-0.3010 RESULT </s> -0.3010
-0.3010 SEVEN </s> -0.3010
-0.3010 SEVENTEEN </s> -0.3010
-0.3010 SEVENTY </s> -0.3010
-0.3010 SIX </s> -0.3010
-0.3010 SIXTEEN </s> -0.3010
-0.3010 SIXTY </s> -0.3010
-0.3010 SQUARE </s> -0.3010
-0.3010 TEN </s> -0.3010
-0.3010 THIRTEEN </s> -0.3010
-0.3010 THIRTY </s> -0.3010
-0.3010 THOUSAND </s> -0.3010
-0.3010 THREE </s> -0.3010
-0.3010 TWELVE </s> -0.3010
-0.3010 TWENTY </s> -0.3010
-0.3010 TWO </s> -0.3010
-0.3010 ZERO </s> -0.3010

\3-grams:
-0.3010 <s> BILLION </s>
-0.3010 <s> CLOSE </s>
-0.3010 <s> DIVIDE </s>
-0.3010 <s> DOT </s>
-0.3010 <s> EIGHT </s>
-0.3010 <s> EIGHTEEN </s>
-0.3010 <s> EIGHTY </s>
-0.3010 <s> ELEVEN </s>
-0.3010 <s> EQUAL </s>
-0.3010 <s> FIFTEEN </s>
-0.3010 <s> FIFTY </s>
-0.3010 <s> FIVE </s>
-0.3010 <s> FORTY </s>
-0.3010 <s> FOUR </s>
-0.3010 <s> FOURTEEN </s>
-0.3010 <s> HOME </s>
-0.3010 <s> HUNDRED </s>
-0.3010 <s> LOGARITHM </s>
-0.3010 <s> MILLION </s>
-0.3010 <s> MINUS </s>
-0.3010 <s> MULTIPLY </s>
-0.3010 <s> NINE </s>
-0.3010 <s> NINTEEN </s>
-0.3010 <s> NINTY </s>
-0.3010 <s> ONE </s>
-0.3010 <s> OPEN </s>
-0.3010 <s> PI </s>
-0.3010 <s> PLUS </s>
-0.3010 <s> POINT </s>
-0.3010 <s> POWER </s>
-0.3010 <s> QUIT </s>
-0.3010 <s> RESULT </s>
-0.3010 <s> SEVEN </s>
-0.3010 <s> SEVENTEEN </s>
-0.3010 <s> SEVENTY </s>
-0.3010 <s> SIX </s>
-0.3010 <s> SIXTEEN </s>
-0.3010 <s> SIXTY </s>
-0.3010 <s> SQUARE </s>
-0.3010 <s> TEN </s>
-0.3010 <s> THIRTEEN </s>
-0.3010 <s> THIRTY </s>
-0.3010 <s> THOUSAND </s>
-0.3010 <s> THREE </s>
-0.3010 <s> TWELVE </s>
-0.3010 <s> TWENTY </s>
-0.3010 <s> TWO </s>
-0.3010 <s> ZERO </s>

\end\
